/* Generated by Edge Impulse
 *
 * Permission is hereby granted, free of charge, to any person obtaining a copy
 * of this software and associated documentation files (the "Software"), to deal
 * in the Software without restriction, including without limitation the rights
 * to use, copy, modify, merge, publish, distribute, sublicense, and/or sell
 * copies of the Software, and to permit persons to whom the Software is
 * furnished to do so, subject to the following conditions:
 *
 * The above copyright notice and this permission notice shall be included in
 * all copies or substantial portions of the Software.
 *
 * THE SOFTWARE IS PROVIDED "AS IS", WITHOUT WARRANTY OF ANY KIND, EXPRESS OR
 * IMPLIED, INCLUDING BUT NOT LIMITED TO THE WARRANTIES OF MERCHANTABILITY,
 * FITNESS FOR A PARTICULAR PURPOSE AND NONINFRINGEMENT. IN NO EVENT SHALL THE
 * AUTHORS OR COPYRIGHT HOLDERS BE LIABLE FOR ANY CLAIM, DAMAGES OR OTHER
 * LIABILITY, WHETHER IN AN ACTION OF CONTRACT, TORT OR OTHERWISE, ARISING FROM,
 * OUT OF OR IN CONNECTION WITH THE SOFTWARE OR THE USE OR OTHER DEALINGS IN THE
 * SOFTWARE.
 */
// Generated on: 01.04.2023 01:15:17

#include <stdio.h>
#include <stdlib.h>
#include "edge-impulse-sdk/tensorflow/lite/c/builtin_op_data.h"
#include "edge-impulse-sdk/tensorflow/lite/c/common.h"
#include "edge-impulse-sdk/tensorflow/lite/micro/micro_mutable_op_resolver.h"
#include "edge-impulse-sdk/porting/ei_classifier_porting.h"

#if EI_CLASSIFIER_PRINT_STATE
#if defined(__cplusplus) && EI_C_LINKAGE == 1
extern "C" {
    extern void ei_printf(const char *format, ...);
}
#else
extern void ei_printf(const char *format, ...);
#endif
#endif

#if defined __GNUC__
#define ALIGN(X) __attribute__((aligned(X)))
#elif defined _MSC_VER
#define ALIGN(X) __declspec(align(X))
#elif defined __TASKING__
#define ALIGN(X) __align(X)
#endif

#ifndef EI_MAX_SCRATCH_BUFFER_COUNT
#define EI_MAX_SCRATCH_BUFFER_COUNT 14
#endif // EI_MAX_SCRATCH_BUFFER_COUNT

#ifndef EI_MAX_OVERFLOW_BUFFER_COUNT
#define EI_MAX_OVERFLOW_BUFFER_COUNT 10
#endif // EI_MAX_OVERFLOW_BUFFER_COUNT

using namespace tflite;
using namespace tflite::ops;
using namespace tflite::ops::micro;

namespace {

constexpr int kTensorArenaSize = 55952;

#if defined(EI_CLASSIFIER_ALLOCATION_STATIC)
uint8_t tensor_arena[kTensorArenaSize] ALIGN(16);
#elif defined(EI_CLASSIFIER_ALLOCATION_STATIC_HIMAX)
#pragma Bss(".tensor_arena")
uint8_t tensor_arena[kTensorArenaSize] ALIGN(16);
#pragma Bss()
#elif defined(EI_CLASSIFIER_ALLOCATION_STATIC_HIMAX_GNU)
uint8_t tensor_arena[kTensorArenaSize] ALIGN(16) __attribute__((section(".tensor_arena")));
#else
#define EI_CLASSIFIER_ALLOCATION_HEAP 1
uint8_t* tensor_arena = NULL;
#endif

static uint8_t* tensor_boundary;
static uint8_t* current_location;

template <int SZ, class T> struct TfArray {
  int sz; T elem[SZ];
};
enum used_operators_e {
  OP_CONV_2D, OP_DEPTHWISE_CONV_2D, OP_PAD, OP_ADD, OP_SOFTMAX,  OP_LAST
};
struct TensorInfo_t { // subset of TfLiteTensor used for initialization from constant memory
  TfLiteAllocationType allocation_type;
  TfLiteType type;
  void* data;
  TfLiteIntArray* dims;
  size_t bytes;
  TfLiteQuantization quantization;
};
struct NodeInfo_t { // subset of TfLiteNode used for initialization from constant memory
  struct TfLiteIntArray* inputs;
  struct TfLiteIntArray* outputs;
  void* builtin_data;
  used_operators_e used_op_index;
};

TfLiteContext ctx{};
TfLiteTensor tflTensors[71];
TfLiteEvalTensor tflEvalTensors[71];
TfLiteRegistration registrations[OP_LAST];
TfLiteNode tflNodes[27];

const TfArray<4, int> tensor_dimension0 = { 4, { 1,40,40,3 } };
const TfArray<1, float> quant0_scale = { 1, { 0.0037062668707221746, } };
const TfArray<1, int> quant0_zero = { 1, { -128 } };
const TfLiteAffineQuantization quant0 = { (TfLiteFloatArray*)&quant0_scale, (TfLiteIntArray*)&quant0_zero, 0 };
const ALIGN(16) int32_t tensor_data1[4*2] = { 
  0, 0, 
  0, 1, 
  0, 1, 
  0, 0, 
};
const TfArray<2, int> tensor_dimension1 = { 2, { 4,2 } };
const ALIGN(16) int8_t tensor_data2[16*3*3*3] = { 
  /* [0][0][][] */ 0,0,0, 0,0,0, 0,0,0, 
  /* [0][1][][] */ 0,0,0, 0,0,0, 0,0,0, 
  /* [0][2][][] */ 0,0,0, 0,0,0, 0,0,0, 
  /* [1][0][][] */ 53,-1,35, -1,-20,19, -127,-120,-66, 
  /* [1][1][][] */ 7,-2,2, -18,7,-2, 6,-28,10, 
  /* [1][2][][] */ 1,22,2, 0,11,2, 46,-15,18, 
  /* [2][0][][] */ 26,-7,-9, 74,116,-2, 37,-40,4, 
  /* [2][1][][] */ 7,12,-3, 67,127,-29, 18,-5,-9, 
  /* [2][2][][] */ 47,-66,18, 73,-42,-21, 30,-55,12, 
  /* [3][0][][] */ 9,35,5, 33,94,20, 1,6,-4, 
  /* [3][1][][] */ 24,39,9, 68,127,25, -12,-17,5, 
  /* [3][2][][] */ 8,6,7, 30,29,11, 2,-1,5, 
  /* [4][0][][] */ 45,78,-4, 21,88,-6, -18,7,-6, 
  /* [4][1][][] */ 46,96,48, 38,127,33, 27,48,-19, 
  /* [4][2][][] */ 50,73,29, 39,112,5, -28,16,12, 
  /* [5][0][][] */ 8,3,-118, -1,4,-100, -2,31,-24, 
  /* [5][1][][] */ 4,-41,-127, 0,-42,-112, 1,16,-21, 
  /* [5][2][][] */ -2,9,-17, 3,-1,-10, 4,16,-8, 
  /* [6][0][][] */ 27,-62,37, 50,-86,42, 10,-20,9, 
  /* [6][1][][] */ 39,-95,64, 67,-127,74, 8,-28,18, 
  /* [6][2][][] */ 23,-33,16, 17,-42,29, -11,9,1, 
  /* [7][0][][] */ -35,14,2, -114,-45,-2, -23,26,4, 
  /* [7][1][][] */ -14,-9,1, -127,-93,-4, -3,-2,9, 
  /* [7][2][][] */ -24,31,-8, -12,12,1, -20,29,1, 
  /* [8][0][][] */ -33,-28,-42, -31,-25,-40, -124,-117,-127, 
  /* [8][1][][] */ -30,-24,-38, -33,-26,-39, -123,-114,-123, 
  /* [8][2][][] */ -25,-13,-40, -28,-16,-41, -48,-38,-67, 
  /* [9][0][][] */ -23,-5,8, -17,-10,-3, 1,1,-13, 
  /* [9][1][][] */ 97,115,-9, 72,127,14, -9,18,25, 
  /* [9][2][][] */ -29,-27,14, 0,-34,-3, 8,1,-23, 
  /* [10][0][][] */ -25,-84,-19, 33,94,20, -9,-13,-3, 
  /* [10][1][][] */ -60,-104,-14, 78,127,14, -17,-27,-1, 
  /* [10][2][][] */ -32,-20,2, 36,22,-11, -9,-1,7, 
  /* [11][0][][] */ -21,-34,-7, 5,-51,-1, 12,-104,-54, 
  /* [11][1][][] */ -57,-53,-27, -43,-73,-46, -15,-61,-55, 
  /* [11][2][][] */ -16,-49,-91, 117,127,60, -46,9,-55, 
  /* [12][0][][] */ 0,0,0, 0,0,0, 0,0,0, 
  /* [12][1][][] */ 0,0,0, 0,0,0, 0,0,0, 
  /* [12][2][][] */ 0,0,0, 0,0,0, 0,0,0, 
  /* [13][0][][] */ -51,-98,-18, -62,-111,-25, -10,-18,-6, 
  /* [13][1][][] */ 61,114,15, 57,127,24, 7,15,10, 
  /* [13][2][][] */ -8,-19,3, 2,-18,-1, 0,4,-4, 
  /* [14][0][][] */ 46,-5,-37, 80,-25,-50, 30,-11,-22, 
  /* [14][1][][] */ 89,-17,-74, 127,-40,-89, 56,-21,-40, 
  /* [14][2][][] */ 55,-9,-46, 74,-21,-53, 24,-8,-20, 
  /* [15][0][][] */ 0,0,0, 0,0,0, 0,0,0, 
  /* [15][1][][] */ 0,0,0, 0,0,0, 0,0,0, 
  /* [15][2][][] */ 0,0,0, 0,0,0, 0,0,0, 
};
const TfArray<4, int> tensor_dimension2 = { 4, { 16,3,3,3 } };
const TfArray<16, float> quant2_scale = { 16, { 3.5351035876374226e-07, 0.058882825076580048, 0.082943931221961975, 0.014017505571246147, 0.0042949039489030838, 0.078744217753410339, 0.036613713949918747, 0.1049833819270134, 0.0021427441388368607, 0.021377632394433022, 0.032560043036937714, 0.002100314712151885, 3.1119930099521298e-07, 0.02747587114572525, 0.050795666873455048, 3.3547898681263177e-08, } };
const TfArray<16, int> quant2_zero = { 16, { 0,0,0,0,0,0,0,0,0,0,0,0,0,0,0,0 } };
const TfLiteAffineQuantization quant2 = { (TfLiteFloatArray*)&quant2_scale, (TfLiteIntArray*)&quant2_zero, 0 };
const ALIGN(16) int32_t tensor_data3[16] = { -1073741824, 16887, -98317, -40501, 108502, 70155, 14026, 49746, 309071, -9201, 27105, 802079, -1073741824, 38288, 15138, -1073741824, };
const TfArray<1, int> tensor_dimension3 = { 1, { 16 } };
const TfArray<16, float> quant3_scale = { 16, { 1.3102037232926023e-09, 0.00021823546558152884, 0.00030741235241293907, 5.19526147400029e-05, 1.5918059943942353e-05, 0.00029184710001572967, 0.00013570018927566707, 0.00038909644354134798, 7.9415813161176629e-06, 7.9231213021557778e-05, 0.000120676209917292, 7.7843269536970183e-06, 1.1533876076441629e-09, 0.00010183291306020692, 0.0001882623037090525, 1.243374708748135e-10, } };
const TfArray<16, int> quant3_zero = { 16, { 0,0,0,0,0,0,0,0,0,0,0,0,0,0,0,0 } };
const TfLiteAffineQuantization quant3 = { (TfLiteFloatArray*)&quant3_scale, (TfLiteIntArray*)&quant3_zero, 0 };
const ALIGN(16) int8_t tensor_data4[1*3*3*16] = { 
  /* [0][0][][] */ -108,19,-82,-126,39,-67,80,-76,-91,-3,-8,29,-127,5,54,-73, 51,25,-127,127,127,-127,127,-127,-85,127,-127,51,-105,5,127,-25, 24,-24,91,-2,-72,67,-95,78,-95,-27,4,-15,61,1,-102,-29, 
  /* [0][1][][] */ -127,127,-22,13,-44,15,-29,14,-28,0,3,-110,-49,8,-30,-14, -78,-41,-57,-14,-8,-26,8,-27,-108,-89,21,-12,-104,-127,1,23, 14,1,65,2,3,33,-26,34,-127,6,-2,2,-21,12,-4,43, 
  /* [0][2][][] */ -115,-72,69,2,-6,38,-39,52,-77,0,0,4,40,2,-27,23, 23,-4,32,-2,-27,40,-34,21,-125,-13,0,85,-58,0,-29,-111, 21,-7,20,0,4,14,9,22,-115,4,-1,-127,107,3,17,-127, 
};
const TfArray<4, int> tensor_dimension4 = { 4, { 1,3,3,16 } };
const TfArray<16, float> quant4_scale = { 16, { 0.079427838325500488, 0.0042133037932217121, 0.0071416161954402924, 0.010096569545567036, 0.0043989350087940693, 0.0013057084288448095, 0.010564371012151241, 0.0017277463339269161, 0.0012413953663781285, 0.0092082023620605469, 0.0067201522178947926, 0.020866362378001213, 0.030907778069376945, 0.010089506395161152, 0.0049017234705388546, 0.16606816649436951, } };
const TfArray<16, int> quant4_zero = { 16, { 0,0,0,0,0,0,0,0,0,0,0,0,0,0,0,0 } };
const TfLiteAffineQuantization quant4 = { (TfLiteFloatArray*)&quant4_scale, (TfLiteIntArray*)&quant4_zero, 3 };
const ALIGN(16) int32_t tensor_data5[16] = { -161, 26927, 23864, 14377, 19117, 107997, 20796, 96056, -5470, 8966, 33231, 10116, -445, 27073, 18667, -107, };
const TfArray<1, int> tensor_dimension5 = { 1, { 16 } };
const TfArray<16, float> quant5_scale = { 16, { 0.0018688903655856848, 9.9136559583712369e-05, 0.00016803803737275302, 0.0002375663461862132, 0.00010350435331929475, 3.0722552764927968e-05, 0.00024857342941686511, 4.0652856114320457e-05, 2.9209302738308907e-05, 0.00021666358225047588, 0.00015812122728675604, 0.00049097323790192604, 0.00072724185883998871, 0.00023740014876239002, 0.00011533467477420345, 0.003907486330717802, } };
const TfArray<16, int> quant5_zero = { 16, { 0,0,0,0,0,0,0,0,0,0,0,0,0,0,0,0 } };
const TfLiteAffineQuantization quant5 = { (TfLiteFloatArray*)&quant5_scale, (TfLiteIntArray*)&quant5_zero, 0 };
const ALIGN(16) int8_t tensor_data6[8*1*1*16] = { 
  /* [0][0][][] */ 0,-21,1,0,127,0,1,1,2,-127,-93,-6,0,123,-3,0, 
  /* [1][0][][] */ 0,-29,-1,83,70,14,21,7,-1,-4,127,-45,0,31,-13,0, 
  /* [2][0][][] */ 0,1,0,-11,-56,4,10,2,1,4,-16,1,0,127,-9,0, 
  /* [3][0][][] */ 0,-13,-21,-127,81,26,67,20,2,60,1,41,0,-2,19,0, 
  /* [4][0][][] */ 0,53,-24,38,-58,34,127,12,0,-60,19,-11,0,-5,14,0, 
  /* [5][0][][] */ 0,-17,-12,-1,-21,-23,-13,16,1,10,-4,-43,0,-5,127,0, 
  /* [6][0][][] */ 0,21,-2,3,49,-24,-27,-10,1,-112,118,61,0,127,61,0, 
  /* [7][0][][] */ 0,13,-17,127,6,-2,16,11,-1,67,-52,79,0,-9,49,0, 
};
const TfArray<4, int> tensor_dimension6 = { 4, { 8,1,1,16 } };
const TfArray<8, float> quant6_scale = { 8, { 0.085622124373912811, 0.068032205104827881, 0.098883435130119324, 0.041740238666534424, 0.06629953533411026, 0.10281451791524887, 0.064664185047149658, 0.037733748555183411, } };
const TfArray<8, int> quant6_zero = { 8, { 0,0,0,0,0,0,0,0 } };
const TfLiteAffineQuantization quant6 = { (TfLiteFloatArray*)&quant6_scale, (TfLiteIntArray*)&quant6_zero, 0 };
const ALIGN(16) int32_t tensor_data7[8] = { -1411, -41867, -8672, -12467, -33671, -1481, -24551, -27115, };
const TfArray<1, int> tensor_dimension7 = { 1, { 8 } };
const TfArray<8, float> quant7_scale = { 8, { 0.0020146381575614214, 0.0016007578233256936, 0.0023266691714525223, 0.0009821233106777072, 0.0015599890612065792, 0.0024191651027649641, 0.0015215103048831224, 0.00088785291882231832, } };
const TfArray<8, int> quant7_zero = { 8, { 0,0,0,0,0,0,0,0 } };
const TfLiteAffineQuantization quant7 = { (TfLiteFloatArray*)&quant7_scale, (TfLiteIntArray*)&quant7_zero, 0 };
const ALIGN(16) int8_t tensor_data8[48*1*1*8] = { 
  /* [0][0][][] */ 15,-127,51,-46,29,-17,-52,22, 
  /* [1][0][][] */ 78,67,-21,-96,12,-11,-88,127, 
  /* [2][0][][] */ 31,5,-44,127,48,123,50,94, 
  /* [3][0][][] */ 78,68,-76,127,-94,-7,-7,14, 
  /* [4][0][][] */ -36,-96,71,6,2,33,-46,-127, 
  /* [5][0][][] */ 16,7,-35,39,4,-31,35,127, 
  /* [6][0][][] */ 48,-18,-127,-91,104,15,55,-36, 
  /* [7][0][][] */ 127,19,22,-26,32,-4,84,-62, 
  /* [8][0][][] */ 19,-107,10,112,4,20,-7,-127, 
  /* [9][0][][] */ 106,-127,11,3,-8,16,-125,83, 
  /* [10][0][][] */ -127,-40,-113,23,-15,10,-109,55, 
  /* [11][0][][] */ -21,-47,-11,-108,-127,-32,49,-14, 
  /* [12][0][][] */ 15,3,-43,72,-80,-20,64,127, 
  /* [13][0][][] */ 0,0,0,0,0,0,0,0, 
  /* [14][0][][] */ -8,-32,-7,7,41,127,45,39, 
  /* [15][0][][] */ 38,5,19,-127,61,43,-58,69, 
  /* [16][0][][] */ 0,0,0,0,0,0,0,0, 
  /* [17][0][][] */ 13,26,127,19,-28,-8,30,31, 
  /* [18][0][][] */ 88,-127,21,36,-6,17,-110,7, 
  /* [19][0][][] */ -127,-7,33,78,-62,-56,-94,66, 
  /* [20][0][][] */ 38,29,-45,121,-22,-127,-3,63, 
  /* [21][0][][] */ 54,23,127,10,-15,-11,66,10, 
  /* [22][0][][] */ -76,-18,-127,0,8,10,-103,7, 
  /* [23][0][][] */ -97,124,-16,-24,5,-12,127,-72, 
  /* [24][0][][] */ 5,-58,-53,84,-8,-59,100,127, 
  /* [25][0][][] */ 12,40,30,28,125,127,-76,-49, 
  /* [26][0][][] */ -85,-32,-127,-1,9,18,-98,-3, 
  /* [27][0][][] */ 1,-24,-35,10,-43,127,62,52, 
  /* [28][0][][] */ 6,-22,-19,45,24,127,50,60, 
  /* [29][0][][] */ 88,25,127,7,-24,-20,94,-2, 
  /* [30][0][][] */ -82,127,-26,-26,15,-9,105,-49, 
  /* [31][0][][] */ -46,-95,-19,-1,38,-76,127,113, 
  /* [32][0][][] */ 0,2,-59,124,-10,110,91,127, 
  /* [33][0][][] */ 5,62,-9,-111,12,-10,-11,127, 
  /* [34][0][][] */ -26,84,-7,-94,28,-14,20,127, 
  /* [35][0][][] */ 127,5,-13,-37,26,36,92,-36, 
  /* [36][0][][] */ -127,-13,24,68,-43,8,-111,85, 
  /* [37][0][][] */ -9,-27,-14,26,34,127,48,52, 
  /* [38][0][][] */ 11,23,8,80,127,-7,-21,35, 
  /* [39][0][][] */ 4,26,38,-127,25,-1,-40,121, 
  /* [40][0][][] */ 99,24,127,5,-11,-9,93,-4, 
  /* [41][0][][] */ -2,-32,-33,90,51,127,79,110, 
  /* [42][0][][] */ -77,-6,127,19,-34,12,-26,63, 
  /* [43][0][][] */ -10,-52,9,101,-15,6,13,-127, 
  /* [44][0][][] */ 31,1,-67,-127,73,-21,-15,-112, 
  /* [45][0][][] */ -94,127,1,-49,11,5,75,-63, 
  /* [46][0][][] */ -127,-25,41,25,-32,31,-87,40, 
  /* [47][0][][] */ 106,25,127,-6,34,-17,120,-20, 
};
const TfArray<4, int> tensor_dimension8 = { 4, { 48,1,1,8 } };
const TfArray<48, float> quant8_scale = { 48, { 0.0010839852038770914, 0.00095151993446052074, 0.00065655523212626576, 0.00060974637744948268, 0.00060841796221211553, 0.00062001153128221631, 0.00069274811539798975, 0.0035377673339098692, 0.00080147938570007682, 0.0041761822067201138, 0.0015517914434894919, 0.0032673836685717106, 0.00035434760502539575, 3.937008052901092e-09, 0.002090041060000658, 0.0004207702586427331, 3.937008052901092e-09, 0.013861802406609058, 0.00074012571712955832, 0.00073416496161371469, 0.00046615069732069969, 0.010718538425862789, 0.00080540089402347803, 0.0026989586185663939, 0.0020055561326444149, 0.001172600663267076, 0.0054464265704154968, 0.003880135715007782, 0.00058100838214159012, 0.0040184785611927509, 0.00212455028668046, 0.00030057172989472747, 0.00042375110206194222, 0.021454008296132088, 0.0010089866118505597, 0.0015784775605425239, 0.0095036933198571205, 0.0007729149074293673, 0.0046448716893792152, 0.00065503508085384965, 0.0030627832747995853, 0.00037225350388325751, 0.00095471023814752698, 0.020596848800778389, 0.00072239188011735678, 0.00087613728828728199, 0.00076511880615726113, 0.00049244455294683576, } };
const TfArray<48, int> quant8_zero = { 48, { 0,0,0,0,0,0,0,0,0,0,0,0,0,0,0,0,0,0,0,0,0,0,0,0,0,0,0,0,0,0,0,0,0,0,0,0,0,0,0,0,0,0,0,0,0,0,0,0 } };
const TfLiteAffineQuantization quant8 = { (TfLiteFloatArray*)&quant8_scale, (TfLiteIntArray*)&quant8_zero, 0 };
const ALIGN(16) int32_t tensor_data9[48] = { 5286, 167, 13114, 8529, 8924, 9168, 15111, -47, 7, -491, 2618, 716, 16936, -112541384, 3438, 21371, -90849240, -146, -758, 14430, 6440, -27, 69, 634, 5173, -1314, 86, 868, 5274, 1984, 3780, 21407, 4864, 415, 323, -2046, 444, 4511, -212, 14511, 2530, 16139, -517, -109, 19055, 270, 9995, 4935, };
const TfArray<1, int> tensor_dimension9 = { 1, { 48 } };
const TfArray<48, float> quant9_scale = { 48, { 0.00039678192115388811, 0.00034829435753636062, 0.00024032547662500292, 0.00022319155687000602, 0.00022270530462265015, 0.00022694902145303786, 0.00025357352569699287, 0.0012949643423780799, 0.00029337350861169398, 0.0015286497073248029, 0.00056801771279424429, 0.0011959930416196585, 0.00012970539683010429, 1.4411023485649821e-09, 0.00076503859600052238, 0.00015401873679365963, 1.4411023485649821e-09, 0.0050739739090204239, 0.00027091562515124679, 0.00026873374008573592, 0.00017062979168258607, 0.003923413809388876, 0.00029480893863365054, 0.00098792684730142355, 0.00073411373887211084, 0.00042921872227452695, 0.0019936098251491785, 0.0014202848542481661, 0.00021267229749355465, 0.0014709238894283772, 0.00077767035691067576, 0.00011002127575920895, 0.0001551098539493978, 0.0078530246391892433, 0.00036932944203726947, 0.00057778588961809874, 0.0034787317272275686, 0.0002829177537932992, 0.001700208755210042, 0.00023976904049050063, 0.0011211012024432421, 0.00013625966676045209, 0.0003494621196296066, 0.0075392704457044601, 0.0002644243068061769, 0.00032070127781480551, 0.000280064094113186, 0.00018025439931079745, } };
const TfArray<48, int> quant9_zero = { 48, { 0,0,0,0,0,0,0,0,0,0,0,0,0,0,0,0,0,0,0,0,0,0,0,0,0,0,0,0,0,0,0,0,0,0,0,0,0,0,0,0,0,0,0,0,0,0,0,0 } };
const TfLiteAffineQuantization quant9 = { (TfLiteFloatArray*)&quant9_scale, (TfLiteIntArray*)&quant9_zero, 0 };
const ALIGN(16) int8_t tensor_data10[1*3*3*48] = { 
  /* [0][0][][] */ -42,-23,-7,-16,7,-39,-78,-68,-27,-51,9,64,34,-71,114,-43,-113,-84,37,-6,-2,-69,-112,-79,-35,-126,-63,-20,70,15,95,27,-127,-88,-7,54,18,48,-127,79,-77,-14,105,-108,-2,-35,-88,107, 76,12,-28,-28,58,-127,-127,-81,60,-77,-115,107,38,-82,-1,62,-52,-112,59,7,10,-110,-127,-69,-4,-127,-120,-40,-55,21,-56,54,29,-127,65,84,13,72,-92,127,-127,6,125,-127,2,-23,-127,94, -31,44,7,-5,-64,-109,-58,-17,86,-7,-127,37,8,-71,-101,-11,-127,-24,27,12,-16,-74,-35,-23,-11,-30,-57,-12,-10,18,-23,10,107,-85,70,31,14,36,-5,16,-78,3,7,-79,-16,5,-55,15, 
  /* [0][1][][] */ -86,-127,-44,-43,-10,55,99,-105,-26,-109,-20,112,89,-64,27,-96,-121,-94,89,-76,41,-88,-103,-127,41,-120,-78,-38,127,-60,127,85,-43,-85,-15,85,-35,-76,-107,90,41,59,104,-108,-90,-117,82,120, 127,-83,-127,-127,127,41,93,-127,101,-127,-111,127,127,-14,-7,127,-60,-127,127,-127,127,-127,-119,-119,127,-100,-127,-127,-120,-127,-70,127,28,-111,127,127,-68,-127,-96,90,60,127,127,-117,-111,-127,126,127, -53,31,-61,-85,-119,-23,31,-38,127,-19,-76,35,55,-70,-25,-43,-37,-29,54,-71,57,-81,-38,-23,47,-5,-45,-61,15,-89,-35,21,29,-97,117,23,-36,-62,2,-15,37,53,10,-75,-57,-37,66,36, 
  /* [0][2][][] */ -61,-107,-33,-35,0,35,-4,-34,-38,-59,-15,60,76,-127,-127,-63,-43,-19,64,75,52,-33,-13,-60,33,-55,-11,-58,76,28,77,63,108,-27,-39,-9,-95,35,-18,31,9,37,15,-55,96,-77,4,31, 87,-74,-88,-86,81,19,7,-47,48,-70,-32,56,83,-26,16,93,-24,-31,78,116,82,-52,-18,-58,94,-67,-19,-98,-51,39,-44,111,-18,-49,67,6,-127,50,-14,-1,10,32,15,-66,127,-100,-12,40, -29,30,-41,-37,-79,-19,22,-11,59,-4,-13,32,30,-43,111,-28,-93,-4,30,60,74,-27,-1,-2,43,2,-4,-63,-13,29,-19,40,-90,-42,65,3,-20,21,27,-38,7,35,-6,-15,63,-34,-4,18, 
};
const TfArray<4, int> tensor_dimension10 = { 4, { 1,3,3,48 } };
const TfArray<48, float> quant10_scale = { 48, { 0.003697915468364954, 0.0028848645742982626, 0.0060212691314518452, 0.0067282984964549541, 0.0094841485843062401, 0.0073016430251300335, 0.0058711054734885693, 0.0027937034610658884, 0.0047418014146387577, 0.0014562129508703947, 0.0038604612927883863, 0.0011105185840278864, 0.0062714791856706142, 0.23551659286022186, 0.0022886928636580706, 0.011553553864359856, 0.1168077290058136, 0.00076629518298432231, 0.004561916459351778, 0.0076589812524616718, 0.0048081958666443825, 0.0059626703150570393, 0.0047571132890880108, 0.0018172337440773845, 0.0029134971555322409, 0.0039637838490307331, 0.0013952451990917325, 0.0021741189993917942, 0.0098294448107481003, 0.0029352486599236727, 0.0023190942592918873, 0.0063128666952252388, 0.0087291263043880463, 0.00032359815668314695, 0.0050089089199900627, 0.0089180143550038338, 0.00073129945667460561, 0.016146738082170486, 0.0013773174723610282, 0.0039086686447262764, 0.0026773940771818161, 0.010145457461476326, 0.0050682751461863518, 0.0002868813753593713, 0.0037769651971757412, 0.0055431374348700047, 0.0093314843252301216, 0.0051001822575926781, } };
const TfArray<48, int> quant10_zero = { 48, { 0,0,0,0,0,0,0,0,0,0,0,0,0,0,0,0,0,0,0,0,0,0,0,0,0,0,0,0,0,0,0,0,0,0,0,0,0,0,0,0,0,0,0,0,0,0,0,0 } };
const TfLiteAffineQuantization quant10 = { (TfLiteFloatArray*)&quant10_scale, (TfLiteIntArray*)&quant10_zero, 3 };
const ALIGN(16) int32_t tensor_data11[48] = { 66584, 58885, 61453, 40896, -582, 12766, 2367, 25783, 18922, 24047, 25930, 9847, -43512, -127, 48055, 361, -204, 42359, 1364, 3667, -15471, 12728, 51515, 23338, -9293, 32147, 35636, 19089, -1788, 13746, -11258, -49307, 12009, 96744, 22741, 1267, 58340, 344, 145121, -27114, 17854, -27003, 2882, 136128, 1063, 45103, 1152, -22935, };
const TfArray<1, int> tensor_dimension11 = { 1, { 48 } };
const TfArray<48, float> quant11_scale = { 48, { 8.7009779235813767e-05, 6.7879169364459813e-05, 0.00014167692279443145, 0.00015831290511414409, 0.00022315644309855998, 0.0001718033745419234, 0.00013814365956932306, 6.573420250788331e-05, 0.00011157179687870666, 3.4263834095327184e-05, 9.0834386355709285e-05, 2.6129850084544159e-05, 0.00014756422024220228, 0.005541567225009203, 5.3851599659537897e-05, 0.00027184834470972419, 0.0027484172023832798, 1.8030475985142402e-05, 0.00010733921226346865, 0.00018021132564172149, 0.0001131340250140056, 0.00014029812882654369, 0.00011193208047188818, 4.2758441850310192e-05, 6.8552872107829899e-05, 9.3265502073336393e-05, 3.2829299016157165e-05, 5.115574094816111e-05, 0.00023128105385694653, 6.9064677518326789e-05, 5.4566924518439919e-05, 0.00014853804896119982, 0.00020539121760521084, 7.6140745477459859e-06, 0.00011785668175434694, 0.00020983563445042819, 1.7207046766998246e-05, 0.000379923265427351, 3.2407471735496074e-05, 9.1968679043930024e-05, 6.2997511122375727e-05, 0.00023871664598118514, 0.0001192535346490331, 6.7501500780053902e-06, 8.8869768660515547e-05, 0.00013042676437180489, 0.0002195643464801833, 0.00012000428978353739, } };
const TfArray<48, int> quant11_zero = { 48, { 0,0,0,0,0,0,0,0,0,0,0,0,0,0,0,0,0,0,0,0,0,0,0,0,0,0,0,0,0,0,0,0,0,0,0,0,0,0,0,0,0,0,0,0,0,0,0,0 } };
const TfLiteAffineQuantization quant11 = { (TfLiteFloatArray*)&quant11_scale, (TfLiteIntArray*)&quant11_zero, 0 };
const ALIGN(16) int8_t tensor_data12[8*1*1*48] = { 
  /* [0][0][][] */ -11,1,8,-95,7,29,5,8,3,5,3,-4,100,0,1,5,0,-9,-6,-1,80,-4,2,3,32,38,14,11,3,3,5,-127,11,7,-3,-1,-30,0,-15,33,8,-25,-11,2,0,0,3,0, 
  /* [1][0][][] */ -35,-5,-4,-8,44,29,-30,76,22,5,-29,-23,13,0,18,34,0,38,18,-48,2,19,127,22,-26,-1,56,2,19,-3,16,-10,15,-6,-9,-21,5,-52,9,1,-8,-6,-80,-7,-32,9,-48,-95, 
  /* [2][0][][] */ -60,12,-4,10,44,-10,26,27,-8,55,11,-4,4,0,9,54,0,14,-127,23,0,15,9,-18,-29,3,41,7,11,27,27,2,4,-9,-11,-14,8,8,7,3,38,-5,-28,0,26,-60,26,15, 
  /* [3][0][][] */ 1,1,1,8,-3,27,2,-4,63,15,-4,-3,25,0,-28,-7,0,-1,-7,1,-3,-2,4,-18,-13,-8,-11,-4,-10,-2,0,-7,-50,42,-53,-1,6,0,1,-127,-1,3,1,-48,-3,-3,0,7, 
  /* [4][0][][] */ -1,-3,80,36,1,-21,-2,-1,2,-1,-1,-10,-81,0,-11,3,0,11,4,1,63,6,1,-3,-17,29,-3,48,-5,-2,-2,95,4,7,-2,-4,17,-13,-9,-16,-5,-127,3,4,-2,-2,-2,0, 
  /* [5][0][][] */ -6,42,4,-7,3,44,26,11,-21,28,7,54,25,0,-127,0,0,12,-36,20,-11,8,-14,38,-21,-3,26,-5,-11,23,24,-17,50,27,-38,-4,3,18,-47,17,24,-13,-10,28,21,59,22,23, 
  /* [6][0][][] */ -24,-55,2,9,39,-49,-18,8,26,-27,-14,86,-5,0,-127,40,0,-8,50,-18,-6,4,24,-33,29,-2,-5,-9,45,-12,-14,-4,93,-32,29,1,-2,-9,-72,-21,-13,-14,-3,-26,-21,-82,-18,-25, 
  /* [7][0][][] */ -115,-25,-10,10,127,21,63,29,14,5,27,-33,-30,0,87,106,0,15,0,63,-15,1,-28,44,15,3,46,8,50,61,56,-10,-13,-17,-20,-24,6,25,28,36,76,0,-30,-10,58,0,66,78, 
};
const TfArray<4, int> tensor_dimension12 = { 4, { 8,1,1,48 } };
const TfArray<8, float> quant12_scale = { 8, { 0.058873012661933899, 0.029820995405316353, 0.05642319843173027, 0.063989415764808655, 0.053340550512075424, 0.061470810323953629, 0.036695279181003571, 0.033996365964412689, } };
const TfArray<8, int> quant12_zero = { 8, { 0,0,0,0,0,0,0,0 } };
const TfLiteAffineQuantization quant12 = { (TfLiteFloatArray*)&quant12_scale, (TfLiteIntArray*)&quant12_zero, 0 };
const ALIGN(16) int32_t tensor_data13[8] = { -6227, -26661, 23860, 23201, 3466, 1479, 38589, 10755, };
const TfArray<1, int> tensor_dimension13 = { 1, { 8 } };
const TfArray<8, float> quant13_scale = { 8, { 0.0013852473348379135, 0.0007016704767011106, 0.0013276046374812722, 0.0015056333504617214, 0.0012550718383863568, 0.0014463720144703984, 0.00086341833230108023, 0.00079991453094407916, } };
const TfArray<8, int> quant13_zero = { 8, { 0,0,0,0,0,0,0,0 } };
const TfLiteAffineQuantization quant13 = { (TfLiteFloatArray*)&quant13_scale, (TfLiteIntArray*)&quant13_zero, 0 };
const ALIGN(16) int8_t tensor_data14[48*1*1*8] = { 
  /* [0][0][][] */ 88,36,-7,-12,127,25,-45,-28, 
  /* [1][0][][] */ -6,-5,4,127,13,-7,9,18, 
  /* [2][0][][] */ 29,-127,-15,35,-5,-65,77,17, 
  /* [3][0][][] */ 127,-37,-8,16,-13,-40,28,11, 
  /* [4][0][][] */ 13,-43,127,-10,-11,-49,11,-98, 
  /* [5][0][][] */ 76,-1,1,-1,127,21,-16,-6, 
  /* [6][0][][] */ -21,95,-9,127,27,40,-79,-44, 
  /* [7][0][][] */ -3,127,-6,5,-3,-10,12,-5, 
  /* [8][0][][] */ 127,52,-2,4,-51,-23,2,-39, 
  /* [9][0][][] */ -127,13,3,16,54,12,-5,5, 
  /* [10][0][][] */ -71,2,20,127,46,24,-21,-4, 
  /* [11][0][][] */ -127,1,9,-70,33,3,-22,-41, 
  /* [12][0][][] */ 127,30,-2,22,-51,-14,9,-46, 
  /* [13][0][][] */ -20,73,-127,-12,2,95,-67,74, 
  /* [14][0][][] */ -52,-33,-16,127,23,3,0,-18, 
  /* [15][0][][] */ -2,127,0,-3,0,-14,12,-52, 
  /* [16][0][][] */ -6,-127,-20,1,-5,-112,115,-29, 
  /* [17][0][][] */ 16,127,-3,-11,5,78,-88,-23, 
  /* [18][0][][] */ -2,44,-127,-1,10,59,-28,68, 
  /* [19][0][][] */ -74,12,9,3,-127,6,19,31, 
  /* [20][0][][] */ -127,-31,5,6,89,-25,41,0, 
  /* [21][0][][] */ -64,-5,-6,3,-127,-8,22,9, 
  /* [22][0][][] */ -127,-24,1,4,92,-16,41,48, 
  /* [23][0][][] */ -18,-24,-6,-7,-2,83,-127,-92, 
  /* [24][0][][] */ -10,38,-127,2,7,44,-17,77, 
  /* [25][0][][] */ 90,-42,-7,127,-82,-11,13,-49, 
  /* [26][0][][] */ 1,-22,-5,-1,-10,117,127,-26, 
  /* [27][0][][] */ 69,-11,-1,14,127,30,38,-15, 
  /* [28][0][][] */ 0,127,-67,5,8,77,-30,117, 
  /* [29][0][][] */ -6,13,-8,-10,-3,89,-127,-89, 
  /* [30][0][][] */ 5,-6,2,-127,-4,0,-1,-12, 
  /* [31][0][][] */ -66,2,3,4,-127,9,11,1, 
  /* [32][0][][] */ -15,32,10,-127,-10,30,-85,-101, 
  /* [33][0][][] */ -62,-12,-3,1,-127,39,45,3, 
  /* [34][0][][] */ -127,77,1,29,31,-21,2,2, 
  /* [35][0][][] */ -17,127,-5,2,9,-85,68,-35, 
  /* [36][0][][] */ -2,49,10,-26,-2,105,-127,-34, 
  /* [37][0][][] */ 36,-56,-6,22,18,-127,116,-18, 
  /* [38][0][][] */ 16,-127,-2,8,9,50,-41,70, 
  /* [39][0][][] */ 6,-127,-11,-5,-5,-12,-47,-90, 
  /* [40][0][][] */ 116,42,5,-10,-46,73,-127,-93, 
  /* [41][0][][] */ 9,-123,22,0,-1,80,-53,127, 
  /* [42][0][][] */ 57,-4,-10,-127,-50,0,-1,-36, 
  /* [43][0][][] */ -78,-20,15,-127,62,5,-12,-10, 
  /* [44][0][][] */ -7,-31,-9,10,-28,96,127,-10, 
  /* [45][0][][] */ -127,-39,-3,2,20,6,28,-13, 
  /* [46][0][][] */ 17,80,127,6,-1,9,12,22, 
  /* [47][0][][] */ -4,3,11,127,14,5,-1,-4, 
};
const TfArray<4, int> tensor_dimension14 = { 4, { 48,1,1,8 } };
const TfArray<48, float> quant14_scale = { 48, { 0.00015724942204542458, 0.00072475901106372476, 0.00066311715636402369, 0.0011350174900144339, 0.0033647126983851194, 0.001163073698990047, 0.0024461427237838507, 0.0027718977071344852, 0.0012595592997968197, 0.0015205811941996217, 0.0016132867895066738, 0.0012378033716231585, 0.0011234146077185869, 0.0013739201240241528, 0.001318880938924849, 0.0043257102370262146, 0.00085312628652900457, 0.0008609502692706883, 0.0045335274189710617, 0.00024086602206807584, 0.00061120354803279042, 0.00085497333202511072, 0.0010344395413994789, 0.0025120831560343504, 0.00083706964505836368, 0.00060638389550149441, 0.00032060997909866273, 0.00086089305114001036, 0.0020439161453396082, 0.0024773625191301107, 0.0013055272866040468, 0.00097912817727774382, 0.0023034664336591959, 0.00059031799901276827, 0.0012150305556133389, 0.00074786029290407896, 0.0012503019534051418, 0.00090829143300652504, 0.00030248577240854502, 0.0069702640175819397, 0.0015226984396576881, 0.0026619045529514551, 0.00097652937984094024, 0.00098871090449392796, 0.00057767372345551848, 0.0010308718774467707, 0.0022803503088653088, 0.002448483370244503, } };
const TfArray<48, int> quant14_zero = { 48, { 0,0,0,0,0,0,0,0,0,0,0,0,0,0,0,0,0,0,0,0,0,0,0,0,0,0,0,0,0,0,0,0,0,0,0,0,0,0,0,0,0,0,0,0,0,0,0,0 } };
const TfLiteAffineQuantization quant14 = { (TfLiteFloatArray*)&quant14_scale, (TfLiteIntArray*)&quant14_zero, 0 };
const ALIGN(16) int32_t tensor_data15[48] = { 76342, 8733, 6325, 7875, 1868, 12002, -2198, -287, 1188, 2500, 3844, 321, 2381, -974, 876, -2337, 5327, 13678, -325, 31246, 5569, 3198, 10657, -562, 3966, 5381, 35200, 11852, -109, -2925, 114, 2328, -2381, 10271, 2452, 6969, 8158, 4077, 21337, 1805, -1060, 2870, 1411, 4161, 5641, 2927, -1383, 3032, };
const TfArray<1, int> tensor_dimension15 = { 1, { 48 } };
const TfArray<48, float> quant15_scale = { 48, { 5.6671742640901357e-05, 0.00026119878748431802, 0.00023898342624306679, 0.0004090534639544785, 0.0012126221554353833, 0.00041916474583558738, 0.00088157510617747903, 0.0009989752434194088, 0.00045393756590783596, 0.00054800830548629165, 0.00058141880435869098, 0.00044609687756747007, 0.00040487185469828546, 0.000495152547955513, 0.00047531674499623477, 0.0015589598333463073, 0.00030746156699024141, 0.00031028129160404205, 0.0016338559798896313, 8.6806663603056222e-05, 0.00022027407248970121, 0.00030812722980044782, 0.00037280577817000449, 0.00090533960610628128, 0.00030167485238052905, 0.00021853709768038243, 0.00011554590309970081, 0.00031026065698824823, 0.00073661503847688437, 0.00089282653061673045, 0.00047050416469573975, 0.00035287189530208707, 0.00083015538984909654, 0.00021274705068208277, 0.00043788968469016254, 0.00026952434564009309, 0.00045060127740725875, 0.00032734274282120168, 0.00010901405039476231, 0.002512041013687849, 0.00054877134971320629, 0.00095933437114581466, 0.00035193530493415892, 0.00035632544313557446, 0.00020819013298023492, 0.00037152000004425645, 0.00082182447658851743, 0.000882418651599437, } };
const TfArray<48, int> quant15_zero = { 48, { 0,0,0,0,0,0,0,0,0,0,0,0,0,0,0,0,0,0,0,0,0,0,0,0,0,0,0,0,0,0,0,0,0,0,0,0,0,0,0,0,0,0,0,0,0,0,0,0 } };
const TfLiteAffineQuantization quant15 = { (TfLiteFloatArray*)&quant15_scale, (TfLiteIntArray*)&quant15_zero, 0 };
const ALIGN(16) int8_t tensor_data16[1*3*3*48] = { 
  /* [0][0][][] */ 4,-3,20,108,4,81,-1,28,16,8,9,7,-8,-9,-44,9,-2,8,-23,-114,-6,-22,127,-10,-3,6,-6,8,-5,4,16,99,20,28,38,-28,1,35,-1,1,17,-68,-8,-8,16,2,-7,-10, 127,10,16,-127,27,86,11,11,124,127,7,43,-50,-24,5,8,127,-56,-60,-57,-101,25,-109,14,17,70,-32,-84,23,21,9,-124,5,-61,127,9,-40,-47,-6,116,-79,-99,-29,3,-34,-8,-127,23, -32,-3,8,15,-1,64,4,18,28,9,-14,31,-14,-3,16,4,-103,29,-4,78,-31,-12,-18,-6,-4,-59,-3,29,-16,5,4,-22,8,-24,16,-20,-1,47,41,-13,50,38,-15,11,-44,3,-2,-6, 
  /* [0][1][][] */ 125,7,1,-98,14,-27,35,-16,9,9,-12,53,-7,-1,18,-32,0,-50,-59,-86,10,-73,-123,-18,5,98,-15,-127,-8,33,12,-108,17,-53,-2,127,-3,59,-41,40,-62,-127,39,-88,-44,-14,-13,-5, 26,-127,-127,114,-127,-127,-127,-127,-127,-96,127,-127,127,127,35,-127,-83,127,127,-107,127,127,111,127,127,-127,-127,29,-127,-127,93,127,-127,127,-30,-42,127,-127,127,127,127,-81,127,127,127,-122,101,106, 53,6,49,-14,6,-61,44,19,-23,15,-104,-8,0,-40,127,5,63,-66,-72,86,14,-45,11,-33,1,6,-38,69,20,40,0,3,32,-45,8,66,-6,64,68,-11,-82,9,-84,-32,26,-16,-11,6, 
  /* [0][2][][] */ -52,-7,26,-17,7,34,-37,23,9,-23,11,32,6,-6,-37,18,4,22,-13,106,6,-32,-16,-13,-3,22,0,51,-10,3,47,-32,-18,-44,-32,-40,-1,31,9,-23,9,-4,42,-37,-36,18,-12,17, 69,126,76,21,16,-20,124,36,18,-3,43,27,-5,-1,-89,25,-58,-56,-37,122,-38,49,11,19,32,-63,-40,29,77,1,127,21,85,-26,8,-36,-25,-17,-12,118,-28,-12,-40,45,21,-32,7,-127, -42,-3,7,-4,5,-5,-61,8,-17,-10,-40,-39,19,-9,-8,12,33,24,-9,-127,23,-10,4,-9,-6,10,-10,-55,-15,8,5,8,-21,86,-37,-23,-5,36,25,-61,4,9,-37,6,-44,127,-5,-4, 
};
const TfArray<4, int> tensor_dimension16 = { 4, { 1,3,3,48 } };
const TfArray<48, float> quant16_scale = { 48, { 0.0089925955981016159, 0.0094587225466966629, 0.0067332959733903408, 0.0098116472363471985, 0.005425402894616127, 0.0030618968885391951, 0.044562175869941711, 0.0057780807837843895, 0.0070339315570890903, 0.0060541238635778427, 0.0040503982454538345, 0.0073328078724443913, 0.012234891764819622, 0.0079986173659563065, 0.0029195020906627178, 0.0092518208548426628, 0.0081361159682273865, 0.0093787843361496925, 0.0033743255771696568, 0.0045788991264998913, 0.0063719102181494236, 0.007045346312224865, 0.0087566757574677467, 0.0079008089378476143, 0.0063189296051859856, 0.0064047034829854965, 0.0224478580057621, 0.0032695264089852571, 0.011226622387766838, 0.30370515584945679, 0.0039804112166166306, 0.0062825004570186138, 0.042281471192836761, 0.0052361013367772102, 0.0073339813388884068, 0.0062938840128481388, 0.016736108809709549, 0.0045344112440943718, 0.0086804842576384544, 0.00095019279979169369, 0.0099469432607293129, 0.0029074924532324076, 0.0066580101847648621, 0.0058550373651087284, 0.0056618875823915005, 0.0036656640004366636, 0.0083463201299309731, 0.0045366506092250347, } };
const TfArray<48, int> quant16_zero = { 48, { 0,0,0,0,0,0,0,0,0,0,0,0,0,0,0,0,0,0,0,0,0,0,0,0,0,0,0,0,0,0,0,0,0,0,0,0,0,0,0,0,0,0,0,0,0,0,0,0 } };
const TfLiteAffineQuantization quant16 = { (TfLiteFloatArray*)&quant16_scale, (TfLiteIntArray*)&quant16_zero, 3 };
const ALIGN(16) int32_t tensor_data17[48] = { -51833, 549, 11895, 103, 6669, -1107, 1130, 25580, 716, 36143, -2449, 25380, -6124, -1130, 35977, 7161, 532, 17275, 28683, 11378, -1175, -798, -280, 11177, -7946, 25057, 44487, 41396, 2534, 107, -1063, 1122, 877, 22755, -6127, 17088, -11454, 26401, -22218, 112903, 13986, 22165, 10115, -1680, 17056, 4445, 1674, -816, };
const TfArray<1, int> tensor_dimension17 = { 1, { 48 } };
const TfArray<48, float> quant17_scale = { 48, { 0.00021159049356356263, 0.00022255818475969136, 0.00015843049914110452, 0.00023086229339241982, 0.00012765654537361115, 7.2044633270706981e-05, 0.0010485218372195959, 0.00013595484779216349, 0.00016550427244510502, 0.00014244997873902321, 9.5303490525111556e-05, 0.00017253666010219604, 0.00028787981136702001, 0.00018820277182385325, 6.8694171204697341e-05, 0.00021768989972770214, 0.00019143802637699991, 0.0002206772769568488, 7.9395897046197206e-05, 0.00010773880785563961, 0.00014992730575613678, 0.00016577285714447498, 0.00020603943266905844, 0.00018590138643048704, 0.0001486807013861835, 0.0001506989065092057, 0.00052818492986261845, 7.6930031355004758e-05, 0.00026415582397021353, 0.0071460036560893059, 9.365673759020865e-05, 0.00014782354992348701, 0.00099485821556299925, 0.00012320239329710603, 0.00017256426508538425, 0.00014809139247518033, 0.00039379080408252776, 0.00010669203038560227, 0.00020424669492058456, 2.2357478883350268e-05, 0.00023404572857543826, 6.8411587562877685e-05, 0.00015665906539652497, 0.00013776558625977486, 0.00013322089216671884, 8.6250918684527278e-05, 0.00019638400408439338, 0.00010674472287064418, } };
const TfArray<48, int> quant17_zero = { 48, { 0,0,0,0,0,0,0,0,0,0,0,0,0,0,0,0,0,0,0,0,0,0,0,0,0,0,0,0,0,0,0,0,0,0,0,0,0,0,0,0,0,0,0,0,0,0,0,0 } };
const TfLiteAffineQuantization quant17 = { (TfLiteFloatArray*)&quant17_scale, (TfLiteIntArray*)&quant17_zero, 0 };
const ALIGN(16) int8_t tensor_data18[8*1*1*48] = { 
  /* [0][0][][] */ -57,-17,-34,15,4,-31,6,-1,-122,127,-35,121,117,11,75,-23,-10,-30,1,6,-7,-3,-19,-38,27,-101,11,63,-16,11,16,-35,0,-75,111,22,-6,-1,-11,-24,122,3,43,-27,-31,29,-14,-20, 
  /* [1][0][][] */ 1,32,127,4,-4,-26,0,-82,30,-1,19,8,-17,8,-2,-114,11,-50,8,4,-27,29,24,-33,-16,-12,16,1,12,-4,10,-3,-7,12,12,10,-11,-33,66,-53,9,33,-7,21,-13,11,22,-3, 
  /* [2][0][][] */ 2,-49,19,-41,34,28,-6,-28,4,-1,-2,13,-8,58,5,0,-36,127,-24,-32,-15,24,-38,-12,122,0,-3,-4,-26,-10,5,-39,-9,-11,-1,10,-13,-1,-14,7,14,-23,-17,2,0,24,-24,-42, 
  /* [3][0][][] */ 3,-84,-2,9,3,-7,-8,-1,-5,-15,19,22,13,-7,50,0,-7,-19,1,23,-4,21,-21,2,7,50,3,6,-6,4,127,1,12,6,-4,0,-19,-13,-5,10,-9,7,-8,27,-6,4,0,35, 
  /* [4][0][][] */ -99,5,1,-1,-2,-42,-2,7,40,-40,18,-19,-35,-1,-10,-8,3,9,0,27,12,-32,11,6,-9,45,7,111,3,2,-10,-34,-4,-127,-31,12,6,-3,2,2,-53,-4,-10,13,-60,0,9,8, 
  /* [5][0][][] */ -27,28,26,10,-48,8,-4,52,22,8,14,12,-3,-50,7,39,1,-81,17,1,38,-40,8,37,9,2,-82,-40,-37,-34,23,1,-2,-69,1,-70,66,19,-46,16,26,-50,6,9,127,-9,-44,-4, 
  /* [6][0][][] */ -29,-23,-20,-6,40,-26,0,-24,-6,-10,35,-23,-14,38,-4,-58,-2,-2,1,-24,-32,50,-5,-78,2,-6,-53,-69,26,47,-14,4,7,-61,-15,62,-64,-55,11,-54,-12,11,14,43,127,-33,41,17, 
  /* [7][0][][] */ 10,32,-73,24,-23,9,5,54,-9,0,56,-28,10,-32,-4,-4,-16,-127,38,-39,54,35,16,-55,15,-24,19,5,-19,30,-13,4,3,36,-1,-27,-12,-55,-41,-69,-15,-24,41,56,-30,-19,-2,0, 
};
const TfArray<4, int> tensor_dimension18 = { 4, { 8,1,1,48 } };
const TfArray<8, float> quant18_scale = { 8, { 0.019020332023501396, 0.028892651200294495, 0.061198316514492035, 0.074788078665733337, 0.036067087203264236, 0.022719336673617363, 0.030265869572758675, 0.045428119599819183, } };
const TfArray<8, int> quant18_zero = { 8, { 0,0,0,0,0,0,0,0 } };
const TfLiteAffineQuantization quant18 = { (TfLiteFloatArray*)&quant18_scale, (TfLiteIntArray*)&quant18_zero, 0 };
const ALIGN(16) int32_t tensor_data19[8] = { -41685, 24471, -13236, -12604, 20026, -7147, 34749, 43129, };
const TfArray<1, int> tensor_dimension19 = { 1, { 8 } };
const TfArray<8, float> quant19_scale = { 8, { 0.00044753722613677382, 0.00067982712062075734, 0.00143996044062078, 0.0017597195692360401, 0.00084863736992701888, 0.00053457263857126236, 0.00071213813498616219, 0.0010688969632610679, } };
const TfArray<8, int> quant19_zero = { 8, { 0,0,0,0,0,0,0,0 } };
const TfLiteAffineQuantization quant19 = { (TfLiteFloatArray*)&quant19_scale, (TfLiteIntArray*)&quant19_zero, 0 };
const ALIGN(16) int8_t tensor_data20[48*1*1*8] = { 
  /* [0][0][][] */ -127,1,-2,77,-37,45,23,-30, 
  /* [1][0][][] */ 24,66,43,20,22,-45,106,127, 
  /* [2][0][][] */ -41,-3,1,0,-127,-12,16,5, 
  /* [3][0][][] */ 102,0,-10,-116,-127,22,37,-19, 
  /* [4][0][][] */ -127,49,-18,-12,74,-10,42,16, 
  /* [5][0][][] */ -95,-24,23,-9,-127,6,6,79, 
  /* [6][0][][] */ -15,-127,29,-20,22,4,-3,36, 
  /* [7][0][][] */ -61,-6,5,95,127,-29,-36,4, 
  /* [8][0][][] */ 80,6,0,-127,1,-19,-44,-40, 
  /* [9][0][][] */ -5,-127,-14,-9,-1,90,-50,97, 
  /* [10][0][][] */ -91,-5,0,24,-127,72,59,-18, 
  /* [11][0][][] */ 115,10,44,16,-62,-48,-30,-127, 
  /* [12][0][][] */ -3,11,39,-5,14,-74,127,64, 
  /* [13][0][][] */ 60,-30,-8,-14,120,127,112,-42, 
  /* [14][0][][] */ 127,57,-3,18,-93,-26,-18,-16, 
  /* [15][0][][] */ -16,-127,20,-12,0,3,3,33, 
  /* [16][0][][] */ -60,-21,0,-3,-127,2,16,8, 
  /* [17][0][][] */ -25,109,-113,2,6,-127,111,-94, 
  /* [18][0][][] */ 127,-23,-43,11,-60,29,8,96, 
  /* [19][0][][] */ 127,-43,-15,0,39,-2,33,4, 
  /* [20][0][][] */ 127,24,-18,127,-2,30,4,-57, 
  /* [21][0][][] */ 14,32,-58,2,-22,89,-127,-88, 
  /* [22][0][][] */ -127,15,30,-1,-35,-1,-43,-17, 
  /* [23][0][][] */ -44,-62,-2,24,-127,62,81,-14, 
  /* [24][0][][] */ 127,-11,-12,-1,-93,-3,-1,7, 
  /* [25][0][][] */ 20,-16,-2,-21,127,49,50,-31, 
  /* [26][0][][] */ 2,-95,6,-38,3,-127,84,-45, 
  /* [27][0][][] */ -21,-127,24,-13,-4,-56,34,-6, 
  /* [28][0][][] */ -103,38,-32,13,-29,-32,127,98, 
  /* [29][0][][] */ -9,40,16,5,-2,37,-96,-127, 
  /* [30][0][][] */ 127,-25,4,10,-88,-4,-42,-19, 
  /* [31][0][][] */ -8,-35,57,-18,24,-110,127,74, 
  /* [32][0][][] */ -66,28,4,2,-127,-90,-100,39, 
  /* [33][0][][] */ -24,13,1,22,-127,-56,-46,20, 
  /* [34][0][][] */ 10,-127,56,-8,-5,91,-80,62, 
  /* [35][0][][] */ -25,-51,-127,-9,0,-65,43,-53, 
  /* [36][0][][] */ 1,127,62,9,-7,11,-21,-35, 
  /* [37][0][][] */ -127,28,35,-19,60,-28,-12,-111, 
  /* [38][0][][] */ -127,-18,-50,-14,47,23,37,118, 
  /* [39][0][][] */ -4,-35,76,-2,22,-87,127,97, 
  /* [40][0][][] */ -28,-14,-7,-37,-127,111,107,-33, 
  /* [41][0][][] */ -127,46,8,-77,-100,-98,-98,55, 
  /* [42][0][][] */ -41,-125,-97,-4,-7,70,-127,-90, 
  /* [43][0][][] */ -70,3,-18,-127,98,61,65,2, 
  /* [44][0][][] */ 127,-8,20,-93,28,-27,-17,37, 
  /* [45][0][][] */ -15,-127,-4,-13,-8,-72,76,3, 
  /* [46][0][][] */ 113,-2,-1,-26,127,-34,-35,0, 
  /* [47][0][][] */ 127,1,-6,115,-14,20,20,-40, 
};
const TfArray<4, int> tensor_dimension20 = { 4, { 48,1,1,8 } };
const TfArray<48, float> quant20_scale = { 48, { 0.00063851673621684313, 0.001353447325527668, 0.0004503205418586731, 0.00050861394265666604, 0.00052388227777555585, 0.00040446603088639677, 0.00073930638609454036, 0.00042861391557380557, 0.00059883244102820754, 0.0013424898497760296, 0.0016339715803042054, 0.00049063051119446754, 0.00065552344312891364, 0.001301670097745955, 0.00022525168606080115, 0.00071417965227738023, 0.00045107665937393904, 0.00083213968900963664, 0.00055589783005416393, 0.00067838269751518965, 0.00068467197706922889, 0.00038042373489588499, 0.00084455235628411174, 0.00028667139122262597, 0.00054414226906374097, 0.00053036789176985621, 0.0037943182978779078, 0.00067507149651646614, 0.00033098945277743042, 0.00072348956018686295, 0.00056822743499651551, 0.00033631018595770001, 0.0013695860980078578, 0.0004526002740021795, 0.001596414134837687, 0.0011042695259675384, 0.0013107050908729434, 0.00073465681634843349, 0.00036217740853317082, 0.00055602274369448423, 0.00032005927641876042, 0.00047941997763700783, 0.00050956208724528551, 0.00059328798670321703, 0.0032431320287287235, 0.00067520223092287779, 0.00051261094631627202, 0.0024482409935444593, } };
const TfArray<48, int> quant20_zero = { 48, { 0,0,0,0,0,0,0,0,0,0,0,0,0,0,0,0,0,0,0,0,0,0,0,0,0,0,0,0,0,0,0,0,0,0,0,0,0,0,0,0,0,0,0,0,0,0,0,0 } };
const TfLiteAffineQuantization quant20 = { (TfLiteFloatArray*)&quant20_scale, (TfLiteIntArray*)&quant20_zero, 0 };
const ALIGN(16) int32_t tensor_data21[48] = { 673, 991, 2365, 608, 7768, 18741, 2774, -7, -874, -603, 1138, 1079, 3601, 1073, 29931, 3266, 2053, -865, -157, 2567, -1635, 12560, 8135, 10070, 5525, 256, 3431, 5231, 9814, -615, 8526, 6794, 547, -187, 4340, 3082, -1971, 271, -933, 6293, 1113, -496, -1099, -16, 1118, 3786, 912, 880, };
const TfArray<1, int> tensor_dimension21 = { 1, { 48 } };
const TfArray<48, float> quant21_scale = { 48, { 0.00034188103745691478, 0.00072467629797756672, 0.00024111513630487025, 0.00027232716092839837, 0.00028050228138454258, 0.00021656324679497629, 0.00039584681508131325, 0.0002294927544426173, 0.00032063285470940173, 0.0007188093732111156, 0.0008748774416744709, 0.00026269830414094031, 0.0003509869275148958, 0.00069695321144536138, 0.00012060651351930574, 0.00038239322020672262, 0.00024151998513843864, 0.00044555257773026824, 0.00029764437931589782, 0.00036322645610198379, 0.00036659391480498016, 0.00020369028788991272, 0.00045219867024570704, 0.00015349246677942574, 0.00029135009390302002, 0.00028397489222697914, 0.0020315919537097216, 0.00036145353806205094, 0.00017722169286571443, 0.0003873780369758606, 0.00030424603028222919, 0.00018007056496571749, 0.00073331751627847552, 0.00024233576550614089, 0.00085476803360506892, 0.0005912590422667563, 0.00070179085014387965, 0.00039335730252787471, 0.00019392065587453544, 0.0002977112599182874, 0.00017136934911832213, 0.00025669584283605218, 0.00027283484814688563, 0.00031766420579515398, 0.001736470265313983, 0.00036152353277429938, 0.00027446728199720383, 0.0013108616694808006, } };
const TfArray<48, int> quant21_zero = { 48, { 0,0,0,0,0,0,0,0,0,0,0,0,0,0,0,0,0,0,0,0,0,0,0,0,0,0,0,0,0,0,0,0,0,0,0,0,0,0,0,0,0,0,0,0,0,0,0,0 } };
const TfLiteAffineQuantization quant21 = { (TfLiteFloatArray*)&quant21_scale, (TfLiteIntArray*)&quant21_zero, 0 };
const ALIGN(16) int8_t tensor_data22[1*3*3*48] = { 
  /* [0][0][][] */ 69,-93,97,70,54,-34,106,-64,59,-88,-80,48,52,-42,-71,-90,100,78,49,78,66,-74,-83,50,-32,-40,-64,-64,-67,62,-63,-114,-13,41,68,64,-66,52,-50,-23,50,-74,57,61,-94,11,75,-33, 81,-97,127,86,-77,-68,-56,-84,95,-101,-63,74,79,-108,-95,92,-38,96,82,127,85,-116,52,71,-52,-77,-69,-79,56,79,-31,-127,-86,79,80,83,-82,82,-82,-17,75,-94,82,89,-74,-127,94,-103, 34,-46,69,37,19,-42,-47,-39,42,-30,6,33,29,-79,-55,-1,-53,37,35,69,34,-55,31,25,-27,-45,-45,-22,31,31,87,-89,-86,43,35,33,-29,38,-37,-11,40,-40,35,42,-7,-9,37,-74, 
  /* [0][1][][] */ 92,-112,-41,94,55,-82,127,-89,86,-114,-72,82,84,-111,-13,-127,127,107,74,-39,84,108,-127,73,74,-76,-93,-99,-127,87,-70,-9,-88,71,105,95,-86,79,-80,89,84,-101,87,90,-88,108,94,-92, 127,-127,-66,127,-127,-127,-90,-127,127,-127,-127,127,127,-127,-22,97,-65,127,127,-51,127,127,69,127,127,-127,-127,-127,54,127,-29,15,-127,127,127,127,-127,127,-127,127,127,-127,127,127,-127,-11,127,-127, 63,-78,-34,66,38,-63,-48,-62,56,-41,-61,57,48,-53,-16,11,-62,50,58,-30,57,64,50,63,66,-64,-62,-43,37,54,127,14,-63,69,48,48,-48,60,-59,56,60,-57,54,62,-62,-67,58,-57, 
  /* [0][2][][] */ 45,-50,-47,50,27,-53,64,-42,41,-73,-4,40,55,-72,83,-79,73,50,34,-31,26,-11,-77,30,-24,-43,-50,-49,-74,31,-42,89,-74,36,47,42,-27,37,-42,-88,48,-49,40,44,-22,16,40,-75, 72,-75,-48,80,-56,-64,-71,-67,50,-77,-67,60,74,-48,127,33,-46,60,61,-44,55,-18,41,66,-49,-66,-78,-61,32,61,-24,116,-55,64,57,57,-49,62,-66,-106,69,-67,60,62,-86,50,63,-52, 40,-41,-28,46,28,-21,-17,-34,14,-25,-52,28,31,6,67,24,-35,22,28,-32,28,-1,38,40,-25,-28,-49,-23,34,34,61,66,0,33,15,21,-22,29,-28,-56,27,-33,26,29,-62,9,31,-4, 
};
const TfArray<4, int> tensor_dimension22 = { 4, { 1,3,3,48 } };
const TfArray<48, float> quant22_scale = { 48, { 0.0029862297233194113, 0.0018710985314100981, 0.0067820162512362003, 0.0025658914819359779, 0.0074028545059263706, 0.002377235796302557, 0.0045908526517450809, 0.004981710109859705, 0.0042922799475491047, 0.0019795042462646961, 0.0026914863847196102, 0.0048238444142043591, 0.0023362794890999794, 0.0019672482740134001, 0.0051591796800494194, 0.0058296038769185543, 0.0069134281948208809, 0.0030741135124117136, 0.0050742425955832005, 0.007474144920706749, 0.0045822574757039547, 0.0063349800184369087, 0.00329610425978899, 0.0049156695604324341, 0.0055817072279751301, 0.0050893970765173435, 0.0013978315982967615, 0.0039446232840418816, 0.0059786508791148663, 0.0072055342607200146, 0.0038999698590487242, 0.0051407325081527233, 0.0024182826746255159, 0.0068406509235501289, 0.0014383010566234589, 0.0025667266454547644, 0.006542860995978117, 0.0041340482421219349, 0.0042279511690139771, 0.0032510107848793268, 0.0055852672085165977, 0.0041331658139824867, 0.0038918126374483109, 0.0038650063797831535, 0.0013323765015229583, 0.0056858370080590248, 0.0054301368072628975, 0.0013029960682615638, } };
const TfArray<48, int> quant22_zero = { 48, { 0,0,0,0,0,0,0,0,0,0,0,0,0,0,0,0,0,0,0,0,0,0,0,0,0,0,0,0,0,0,0,0,0,0,0,0,0,0,0,0,0,0,0,0,0,0,0,0 } };
const TfLiteAffineQuantization quant22 = { (TfLiteFloatArray*)&quant22_scale, (TfLiteIntArray*)&quant22_zero, 3 };
const ALIGN(16) int32_t tensor_data23[48] = { 5936, 32456, -1299, 35290, 4781, 128656, -6885, 49300, 1594, 26831, 23087, -1013, -2676, 28166, 1519, -1205, -1060, -11, 2102, -4172, 434, -5133, 2389, -15640, -3026, 37465, 121032, 84457, 2606, -1081, 1803, 3578, 23507, -412, 20335, -1294, 37377, 1438, 56526, 1608, -539, 59709, -116, 3694, 55726, -289, 320, 46046, };
const TfArray<1, int> tensor_dimension23 = { 1, { 48 } };
const TfArray<48, float> quant23_scale = { 48, { 7.026422827038914e-05, 4.4025848183082417e-05, 0.00015957685536704957, 6.037391722202301e-05, 0.00017418481002096087, 5.5934960982995108e-05, 0.00010802006727317348, 0.00011721671035047621, 0.00010099482460645959, 4.6576569729950279e-05, 6.3329091062769294e-05, 0.00011350222484907135, 5.4971282224869356e-05, 4.6288194425869733e-05, 0.00012139246246078983, 0.00013716715329792351, 0.00016266890452243388, 7.2332084528170526e-05, 0.00011939394607907161, 0.00017586223839316517, 0.00010781782475532964, 0.00014905835269019008, 7.7555392635986209e-05, 0.00011566281318664551, 0.00013133429456502199, 0.0001197505189338699, 3.2890155125642195e-05, 9.2814669187646359e-05, 0.00014067413576412946, 0.00016954199236351997, 9.176399908028543e-05, 0.00012095841520931572, 5.6900771596701816e-05, 0.00016095649334602058, 3.3842377888504416e-05, 6.039356958353892e-05, 0.0001539496734039858, 9.7271724371239543e-05, 9.948120714398101e-05, 7.6494376116897911e-05, 0.00013141805538907647, 9.7250958788208663e-05, 9.1572066594380885e-05, 9.0941328380722553e-05, 3.1350034987553954e-05, 0.00013378440053202212, 0.00012776792573276907, 3.0658731702715158e-05, } };
const TfArray<48, int> quant23_zero = { 48, { 0,0,0,0,0,0,0,0,0,0,0,0,0,0,0,0,0,0,0,0,0,0,0,0,0,0,0,0,0,0,0,0,0,0,0,0,0,0,0,0,0,0,0,0,0,0,0,0 } };
const TfLiteAffineQuantization quant23 = { (TfLiteFloatArray*)&quant23_scale, (TfLiteIntArray*)&quant23_zero, 0 };
const ALIGN(16) int8_t tensor_data24[16*1*1*48] = { 
  /* [0][0][][] */ -12,-6,-20,12,25,-5,5,99,-47,12,38,-9,20,-19,-12,17,17,-9,-4,-2,66,-10,23,127,-19,81,-7,-17,28,-18,27,-22,-20,54,22,-44,18,49,14,-9,-102,-28,24,46,33,29,-119,-52, 
  /* [1][0][][] */ -41,-10,23,11,-34,14,-2,60,-59,-32,8,-47,-25,-15,-3,-6,-27,118,-14,17,5,10,-31,-20,27,-40,21,28,-30,-88,-41,18,-18,-8,32,-6,-2,-42,5,14,-22,-28,127,9,13,-4,20,-9, 
  /* [2][0][][] */ -23,-5,-11,-37,-1,-62,4,-19,-1,15,18,27,13,14,-13,6,-5,-18,-26,-13,-5,0,-2,-127,-13,71,-12,6,-1,-17,-4,-8,-4,51,9,-4,20,10,28,-1,-41,5,-16,-7,0,-12,17,10, 
  /* [3][0][][] */ -8,31,2,-32,-1,1,1,-2,-21,-1,-1,38,-127,8,-8,-3,0,4,-19,-3,-32,7,6,16,-8,-10,4,26,-9,18,3,16,4,1,15,18,-9,26,43,4,11,6,22,-31,10,-6,3,20, 
  /* [4][0][][] */ 33,-33,7,9,19,28,23,-21,-30,4,-9,-18,2,12,3,15,20,-10,-76,4,-4,12,13,70,3,-24,3,47,10,-73,19,7,15,-34,33,-127,11,33,0,20,-21,18,5,-25,-10,-18,8,5, 
  /* [5][0][][] */ 34,-2,-19,56,-2,-10,7,22,-1,-4,38,4,7,52,4,3,-25,25,30,2,13,1,4,-23,-3,-53,1,-25,-4,-14,1,7,65,-127,0,36,-13,-8,11,7,-89,52,22,-1,-2,-4,-103,-6, 
  /* [6][0][][] */ 23,-4,5,7,-11,-3,2,-11,-5,7,-2,6,-19,9,2,3,0,-13,127,8,4,9,15,-36,5,5,25,-10,-9,-5,-6,6,0,-13,28,-39,0,-46,74,11,0,-5,-10,4,-11,1,5,-12, 
  /* [7][0][][] */ -41,-16,-13,36,-6,74,-2,42,1,28,-9,127,78,-5,-5,-1,-3,-21,-5,-20,-26,-9,-19,69,2,-33,-53,-32,-11,-16,-11,-8,1,2,-23,6,7,-60,92,-6,25,25,-64,-57,13,-6,4,0, 
  /* [8][0][][] */ -50,-49,2,2,-7,5,-3,35,-4,-66,3,44,49,8,5,4,-14,59,-32,3,-51,23,-6,-12,6,4,1,45,-5,116,-14,18,-6,5,-19,-127,-111,65,35,25,19,-3,106,-26,11,27,18,33, 
  /* [9][0][][] */ -26,2,-3,33,20,-30,-6,0,60,-37,6,59,-51,8,14,2,-7,21,-34,-23,51,6,-10,-15,0,10,45,-22,14,13,10,-4,-6,20,70,-100,-11,-127,-92,10,-26,25,52,7,2,7,-12,-43, 
  /* [10][0][][] */ -19,-9,-34,-127,45,87,11,-15,0,33,21,10,52,-46,-29,25,35,-40,57,-34,31,-27,42,54,-48,-114,6,-36,48,35,47,-44,-32,-81,26,-3,15,-40,4,-31,-33,-67,-9,14,17,14,19,-33, 
  /* [11][0][][] */ 5,49,-5,66,33,-63,-79,-21,3,55,-19,6,-7,53,1,-76,23,46,10,-7,-49,-102,15,5,11,-41,12,-24,55,-36,20,-84,48,-16,-39,-85,89,25,4,-127,2,61,101,-70,-8,-57,37,29, 
  /* [12][0][][] */ 127,-4,-14,15,6,19,4,100,22,-14,-57,-23,-1,12,-13,-3,-8,5,-2,-4,6,3,0,19,-1,15,-2,5,-1,15,-3,4,3,-63,-6,10,-18,-19,-30,1,-14,-80,6,-125,-55,-7,81,-6, 
  /* [13][0][][] */ 9,2,1,7,8,-8,2,0,2,5,4,24,-4,3,4,1,6,2,12,4,14,-11,8,-4,2,0,18,127,12,-2,6,-2,4,1,-39,21,8,-7,5,-13,-12,-3,2,6,-1,-3,-7,-12, 
  /* [14][0][][] */ 68,-27,45,-67,55,24,45,-102,-54,-61,-9,123,-67,-8,62,17,59,29,-50,70,24,10,73,-13,22,60,-37,-122,32,-39,65,52,-10,76,-127,-47,-43,41,86,13,-32,4,51,4,-3,7,14,-33, 
  /* [15][0][][] */ -3,-48,-74,-34,54,27,79,-54,-6,17,-11,-34,85,17,-97,67,57,54,82,-78,-97,-22,58,-16,-92,40,29,52,60,52,48,-43,28,60,99,127,-20,-105,-13,-29,94,57,119,-47,-8,-30,-12,66, 
};
const TfArray<4, int> tensor_dimension24 = { 4, { 16,1,1,48 } };
const TfArray<16, float> quant24_scale = { 16, { 0.032621040940284729, 0.031472098082304001, 0.046725992113351822, 0.040728949010372162, 0.037035666406154633, 0.041194621473550797, 0.049227222800254822, 0.022714342921972275, 0.026568133383989334, 0.03785628080368042, 0.034502305090427399, 0.022728661075234413, 0.042143471539020538, 0.05550646036863327, 0.022832095623016357, 0.023646175861358643, } };
const TfArray<16, int> quant24_zero = { 16, { 0,0,0,0,0,0,0,0,0,0,0,0,0,0,0,0 } };
const TfLiteAffineQuantization quant24 = { (TfLiteFloatArray*)&quant24_scale, (TfLiteIntArray*)&quant24_zero, 0 };
const ALIGN(16) int32_t tensor_data25[16] = { -36144, 2183, 2250, -8943, 452, -3579, -12036, -40531, 1663, 22462, 34669, -9186, -2668, -22238, 41748, -41914, };
const TfArray<1, int> tensor_dimension25 = { 1, { 16 } };
const TfArray<16, float> quant25_scale = { 16, { 0.00076755392365157604, 0.00074051995761692524, 0.0010994351468980312, 0.00095832825172692537, 0.00087142747361212969, 0.00096928520360961556, 0.001158287632279098, 0.00053445511730387807, 0.00062513258308172226, 0.00089073606068268418, 0.00081181898713111877, 0.00053479202324524522, 0.00099161115940660238, 0.0013060343917459249, 0.00053722580196335912, 0.00055638060439378023, } };
const TfArray<16, int> quant25_zero = { 16, { 0,0,0,0,0,0,0,0,0,0,0,0,0,0,0,0 } };
const TfLiteAffineQuantization quant25 = { (TfLiteFloatArray*)&quant25_scale, (TfLiteIntArray*)&quant25_zero, 0 };
const ALIGN(16) int8_t tensor_data26[96*1*1*16] = { 
  /* [0][0][][] */ 36,-22,121,114,66,-23,26,-36,127,-7,-50,-81,33,79,-34,-86, 
  /* [1][0][][] */ 46,71,-27,-7,95,-17,-1,21,52,90,-27,124,6,-46,127,-110, 
  /* [2][0][][] */ 31,-64,-9,-10,-63,25,-36,79,-82,-72,12,62,-1,-127,84,-86, 
  /* [3][0][][] */ 113,127,-10,36,-126,-15,-72,-34,-1,-1,109,-65,-59,86,-47,-30, 
  /* [4][0][][] */ -3,2,15,2,-23,31,-12,35,-58,-38,1,-10,-5,-127,28,8, 
  /* [5][0][][] */ 117,-49,-23,5,-15,-114,-33,20,-5,10,-127,-2,23,-6,-1,29, 
  /* [6][0][][] */ -127,-68,-11,101,-60,6,-38,38,-113,-75,-80,-24,28,63,-14,101, 
  /* [7][0][][] */ -19,10,-76,45,35,-127,-22,46,15,-25,11,-5,4,21,-45,13, 
  /* [8][0][][] */ 28,-44,-14,-11,8,31,-55,-65,-11,16,-63,8,-127,-3,2,24, 
  /* [9][0][][] */ 31,-49,66,123,5,23,3,-66,127,-82,-1,-20,3,57,-75,10, 
  /* [10][0][][] */ -116,-91,-15,-59,107,39,42,74,109,-71,-100,26,113,-118,-127,93, 
  /* [11][0][][] */ 37,-13,-127,14,51,27,-19,41,-10,-38,-8,-8,-1,21,-38,5, 
  /* [12][0][][] */ 109,-54,0,-5,-14,-72,-64,-38,34,-7,-127,-31,-57,-26,9,73, 
  /* [13][0][][] */ 26,-78,30,-50,94,5,-101,-127,53,-53,20,1,10,-20,22,-7, 
  /* [14][0][][] */ -65,36,-90,-41,91,-123,63,-56,71,53,-7,-92,22,127,-17,20, 
  /* [15][0][][] */ 29,-8,63,43,51,-41,-35,-11,21,-60,-66,-4,-127,-50,-17,50, 
  /* [16][0][][] */ -127,58,4,5,0,87,52,80,-12,32,124,7,1,17,2,-41, 
  /* [17][0][][] */ -13,-7,-49,-38,-39,7,39,74,-28,127,-17,5,-4,77,69,3, 
  /* [18][0][][] */ -5,110,-63,-9,-8,-6,64,-74,23,127,-37,97,19,-58,45,-88, 
  /* [19][0][][] */ 10,-17,42,15,5,50,-5,21,9,1,-50,-2,-127,5,-18,30, 
  /* [20][0][][] */ 99,-60,2,-85,-19,30,38,-78,-60,33,-127,-43,23,12,47,3, 
  /* [21][0][][] */ 50,-7,127,54,-22,54,21,-2,4,24,-15,-12,-17,84,5,-14, 
  /* [22][0][][] */ 26,10,18,3,-14,-3,28,127,9,-2,17,32,5,35,25,20, 
  /* [23][0][][] */ -19,13,-80,8,14,-127,16,35,-6,-19,-14,-10,-54,3,-2,35, 
  /* [24][0][][] */ 45,-73,12,-53,57,4,-20,-3,41,40,63,101,-41,94,127,33, 
  /* [25][0][][] */ -127,-96,-52,3,7,5,17,-32,-54,9,-77,13,24,42,35,60, 
  /* [26][0][][] */ 8,10,52,3,-1,20,-36,64,-78,-75,-10,21,1,-127,44,-19, 
  /* [27][0][][] */ -91,34,-49,23,30,-27,8,28,31,-25,127,19,-19,4,-12,-20, 
  /* [28][0][][] */ -16,-7,20,30,-3,3,13,87,28,10,-28,-7,-127,-10,-15,36, 
  /* [29][0][][] */ -14,63,42,-33,39,-12,24,-24,-127,36,-32,6,0,36,-87,7, 
  /* [30][0][][] */ -3,-14,-127,-37,20,-67,1,16,-25,-9,-7,-28,-36,-28,7,23, 
  /* [31][0][][] */ 121,-30,-127,2,31,2,-58,55,-22,-17,-85,-46,14,-16,-80,39, 
  /* [32][0][][] */ -113,45,32,52,16,101,26,37,20,7,127,9,-38,25,-18,-26, 
  /* [33][0][][] */ 3,-10,127,-21,-54,27,-1,-37,1,-2,-4,23,-12,18,37,18, 
  /* [34][0][][] */ -23,-18,-50,-103,18,9,2,-34,-36,-47,-23,-127,-23,-7,45,6, 
  /* [35][0][][] */ 3,-31,39,48,49,-19,17,-12,-118,36,-14,29,-20,127,-46,-39, 
  /* [36][0][][] */ -123,49,-25,10,-4,63,53,113,4,46,127,0,-5,30,6,-42, 
  /* [37][0][][] */ -32,6,127,-31,-79,-68,30,-32,19,25,-1,2,4,-59,63,15, 
  /* [38][0][][] */ 7,-15,-17,22,28,-52,-50,7,-14,-9,74,-16,127,23,-7,12, 
  /* [39][0][][] */ -35,-18,-9,-41,-61,-99,55,127,-32,-20,-4,-42,1,56,73,63, 
  /* [40][0][][] */ 60,0,-20,-17,-9,81,-11,3,11,-8,21,-5,127,6,-23,-16, 
  /* [41][0][][] */ 1,-13,-28,-127,32,-8,-27,-68,-13,-49,12,-36,-5,-20,-21,25, 
  /* [42][0][][] */ 37,62,-7,92,-127,-14,-103,-8,-82,-63,84,-92,-51,113,-33,22, 
  /* [43][0][][] */ 14,111,-28,127,21,21,45,-72,-43,86,-5,24,6,-43,43,34, 
  /* [44][0][][] */ 0,-25,-127,14,44,68,-39,52,-22,-27,39,-29,15,-28,-45,5, 
  /* [45][0][][] */ 0,11,-11,-127,-23,-3,59,-1,-7,25,-29,14,9,-87,36,-36, 
  /* [46][0][][] */ 8,35,62,-14,18,18,-57,48,28,-47,-24,22,2,127,55,-16, 
  /* [47][0][][] */ 20,-17,18,-43,-35,19,-61,48,-16,-36,18,28,4,-127,39,11, 
  /* [48][0][][] */ 6,-12,11,-127,-4,-16,-5,9,14,-35,11,-13,9,48,-12,54, 
  /* [49][0][][] */ 37,-35,-6,106,90,10,-3,47,-56,13,38,33,-15,37,127,-9, 
  /* [50][0][][] */ -19,-10,80,-28,13,127,-38,-68,43,-40,109,35,89,-3,4,-62, 
  /* [51][0][][] */ 25,54,9,12,22,7,-51,16,44,-2,0,127,8,26,33,-61, 
  /* [52][0][][] */ -19,63,127,0,23,-44,5,-58,-36,1,10,37,-9,84,-123,-12, 
  /* [53][0][][] */ -13,-14,-53,-127,-46,6,17,-41,-14,43,12,1,18,-32,56,5, 
  /* [54][0][][] */ 3,9,-33,-50,18,3,-8,6,61,-19,11,-36,-5,127,25,37, 
  /* [55][0][][] */ -14,-35,-48,-16,3,-51,-13,-127,14,-82,-3,-14,-33,-79,-32,-14, 
  /* [56][0][][] */ 42,42,34,65,5,-20,11,127,22,-25,9,-34,77,-14,-55,31, 
  /* [57][0][][] */ 80,-36,127,-25,-63,-50,4,-29,15,15,-95,20,55,-37,53,21, 
  /* [58][0][][] */ 108,98,28,127,-121,-10,-14,52,-18,19,85,-16,-70,-47,-32,-79, 
  /* [59][0][][] */ 127,-36,-11,-5,-28,-22,-1,3,-31,19,-114,-19,20,-8,5,31, 
  /* [60][0][][] */ -127,40,-9,-9,19,14,14,25,2,0,110,-7,-45,-7,25,-16, 
  /* [61][0][][] */ -88,59,33,30,39,11,-69,-48,127,-93,71,7,43,-30,-102,-64, 
  /* [62][0][][] */ -19,-46,-127,67,73,121,-8,109,21,-67,52,-11,-85,-10,-105,-18, 
  /* [63][0][][] */ -39,9,127,-38,-57,-62,38,-32,5,15,-2,11,-7,-49,76,14, 
  /* [64][0][][] */ 19,57,-15,30,55,-2,93,-127,-14,122,7,-30,-16,-104,3,50, 
  /* [65][0][][] */ 1,21,8,-23,63,11,-5,-127,-27,-61,-33,-42,-8,-34,38,23, 
  /* [66][0][][] */ -127,2,-23,4,-48,18,18,-45,-83,-32,-75,46,61,19,54,86, 
  /* [67][0][][] */ 3,-51,10,127,3,-15,-18,47,56,35,11,-11,2,-29,-103,-13, 
  /* [68][0][][] */ 8,9,-4,127,-45,-17,-7,-32,-40,22,8,-17,-26,-60,-32,-44, 
  /* [69][0][][] */ 96,86,27,127,59,-10,63,-120,24,104,10,68,-4,-29,25,-22, 
  /* [70][0][][] */ 4,-25,15,-79,127,-28,51,22,91,-36,52,-44,-1,113,60,106, 
  /* [71][0][][] */ 7,48,5,83,46,-127,-45,92,37,-98,24,12,9,-63,-56,37, 
  /* [72][0][][] */ -127,-74,-12,55,23,37,-28,20,-41,-27,-90,40,49,22,-1,91, 
  /* [73][0][][] */ -14,-27,-13,64,15,-23,-4,-18,75,16,2,2,24,127,-55,-45, 
  /* [74][0][][] */ 71,-58,20,-32,-37,-19,37,-18,-40,2,-113,24,-127,-14,32,50, 
  /* [75][0][][] */ -10,-21,-17,127,-28,13,1,-16,-65,16,-18,-21,0,-44,-19,-36, 
  /* [76][0][][] */ 4,-6,1,49,37,17,-18,-117,20,-127,0,27,-23,-16,25,-44, 
  /* [77][0][][] */ 127,-37,37,55,-41,-4,-38,-4,46,-2,-38,55,41,12,-53,36, 
  /* [78][0][][] */ -21,1,39,-9,4,-12,-61,36,48,-22,-32,-34,20,127,27,-21, 
  /* [79][0][][] */ 1,14,38,11,34,51,-52,-54,7,-49,74,-22,127,-28,-22,-34, 
  /* [80][0][][] */ -119,-103,-87,127,5,30,48,-15,-95,32,-118,12,70,-94,-20,62, 
  /* [81][0][][] */ 61,8,-70,39,127,94,-39,-38,-5,-112,-23,-79,-33,-7,-92,24, 
  /* [82][0][][] */ 127,122,-1,42,-127,-16,-78,-23,-73,4,115,-66,-60,105,-1,-44, 
  /* [83][0][][] */ 127,45,9,-22,7,-12,-7,23,33,18,83,-34,-46,-29,-20,-75, 
  /* [84][0][][] */ 10,-52,-61,-34,37,17,1,-127,-30,-57,25,9,-18,-9,0,-8, 
  /* [85][0][][] */ -20,0,-34,-50,2,0,72,94,-6,127,-13,-42,26,69,58,-22, 
  /* [86][0][][] */ 101,-19,10,2,5,-27,-3,-22,4,-3,-127,7,12,19,-14,20, 
  /* [87][0][][] */ -24,34,16,-37,-12,71,-23,46,-10,-26,37,4,6,-127,13,3, 
  /* [88][0][][] */ -10,-11,-88,-32,63,-1,-27,-127,11,-20,-6,-21,-42,3,14,-26, 
  /* [89][0][][] */ 30,-18,37,-127,39,10,-55,109,74,-86,34,12,-10,39,30,37, 
  /* [90][0][][] */ 0,14,-34,65,82,3,108,-87,79,127,-46,51,17,8,-19,-22, 
  /* [91][0][][] */ 39,-9,-45,-14,-3,-127,-13,-11,-9,-8,-53,-6,32,-16,8,30, 
  /* [92][0][][] */ 26,-2,127,76,38,19,2,46,-30,36,-74,31,31,104,4,-10, 
  /* [93][0][][] */ 127,-35,-29,-6,-21,-50,18,47,-18,43,-124,3,5,24,-8,38, 
  /* [94][0][][] */ 19,-19,40,73,107,-34,-11,54,10,-14,-2,51,-3,127,-19,-73, 
  /* [95][0][][] */ -110,44,34,33,16,35,26,-1,7,2,127,-10,-21,26,-10,-27, 
};
const TfArray<4, int> tensor_dimension26 = { 4, { 96,1,1,16 } };
const TfArray<96, float> quant26_scale = { 96, { 0.00046775085502304137, 0.00099499139469116926, 0.00053330889204517007, 0.0039382823742926121, 0.00092787586618214846, 0.00052220531506463885, 0.00086555950110778213, 0.0025443756021559238, 0.0011491344776004553, 0.00032950102468021214, 0.00082644005306065083, 0.0026410713326185942, 0.0015871487557888031, 0.00051917752716690302, 0.00081609934568405151, 0.00095516565488651395, 0.00096070376457646489, 0.00048548390623182058, 0.0014020357048138976, 0.0015920191071927547, 0.0013359884032979608, 0.00049004593165591359, 0.00096908950945362449, 0.0010072933509945869, 0.00080575328320264816, 0.0018596177687868476, 0.00086409493815153837, 0.00085498508997261524, 0.0018958327127620578, 0.001565251499414444, 0.0006312757614068687, 0.00063753407448530197, 0.00039332732558250427, 0.0029532348271459341, 0.00065444508800283074, 0.0014156567631289363, 0.00045024673454463482, 0.0016283919103443623, 0.0018704825779423118, 0.00052930339006707072, 0.0028333840891718864, 0.00051288644317537546, 0.00063656113343313336, 0.00067294132895767689, 0.0011472341138869524, 0.0010241771815344691, 0.00058983778581023216, 0.00071150687290355563, 0.0010985321132466197, 0.0011264253407716751, 0.0016218632226809859, 0.0023870086297392845, 0.00038703938480466604, 0.00061700085643678904, 0.00097473314963281155, 0.0003363425494171679, 0.001358932233415544, 0.00081382837379351258, 0.0010636156657710671, 0.0012876273831352592, 0.00041504119872115552, 0.00055311608593910933, 0.0013724425807595253, 0.0022395006380975246, 0.00075698585715144873, 0.00069627276388928294, 0.0011261787731200457, 0.0013051937567070127, 0.00045590687659569085, 0.00056759262224659324, 0.00068670260952785611, 0.0015700572403147817, 0.0010216962546110153, 0.0012760793324559927, 0.0011193993268534541, 0.0011942217824980617, 0.00026193112717010081, 0.0010359936859458685, 0.00046672218013554811, 0.0016695669619366527, 0.00068470992846414447, 0.00088628096273168921, 0.00074325891910120845, 0.0017371425637975335, 0.00064806995214894414, 0.00068873778218403459, 0.00087937980424612761, 0.00096390140242874622, 0.00048621182213537395, 0.0014061908004805446, 0.00059194315690547228, 0.0012916297418996692, 0.00033424320281483233, 0.00036680386983789504, 0.00087762065231800079, 0.00081597582902759314, } };
const TfArray<96, int> quant26_zero = { 96, { 0,0,0,0,0,0,0,0,0,0,0,0,0,0,0,0,0,0,0,0,0,0,0,0,0,0,0,0,0,0,0,0,0,0,0,0,0,0,0,0,0,0,0,0,0,0,0,0,0,0,0,0,0,0,0,0,0,0,0,0,0,0,0,0,0,0,0,0,0,0,0,0,0,0,0,0,0,0,0,0,0,0,0,0,0,0,0,0,0,0,0,0,0,0,0,0 } };
const TfLiteAffineQuantization quant26 = { (TfLiteFloatArray*)&quant26_scale, (TfLiteIntArray*)&quant26_zero, 0 };
const ALIGN(16) int32_t tensor_data27[96] = { 27711, 1589, 12712, -691, 8513, 8949, 17894, 6910, -2010, 27501, 8669, 1543, 8634, 46252, -580, -3603, 11468, 23936, 1588, -315, -1014, 25266, 7793, 3879, 10992, 5619, 8231, 5238, 110, -34, 11216, 14770, 24909, 1802, 12749, -932, 25005, 8079, 1198, 9101, 848, 18350, 16574, 5575, 4804, 15790, 23776, 10142, 7267, 3948, 394, -1350, 34642, 12964, 11930, 27605, -361, 10660, 3703, 6286, 20531, 12625, 3834, 6141, 6883, 7916, 8700, -1360, 29457, 10270, 14386, -1489, -1849, 5105, 1891, 5403, 44636, 21630, 17613, -3676, 7865, -11647, -2582, 744, 12171, 11502, 9184, 7210, 17355, 5621, 11764, 6511, 31513, 37209, -16590, 20038, };
const TfArray<1, int> tensor_dimension27 = { 1, { 96 } };
const TfArray<96, float> quant27_scale = { 96, { 9.3957387434784323e-05, 0.00019986450206488371, 0.00010712607036111876, 0.0007910850690677762, 0.00018638296751305461, 0.00010489569103810936, 0.0001738654391374439, 0.00051109021296724677, 0.00023082732514012605, 6.6187065385747701e-05, 0.0001660075067775324, 0.00053051352733746171, 0.00031881150789558887, 0.00010428749374113977, 0.00016393035184592009, 0.00019186468853149563, 0.00019297712424304336, 9.7519434348214418e-05, 0.00028162772650830448, 0.00031978980405256152, 0.00026836077449843287, 9.8435812105890363e-05, 0.00019466158119030297, 0.00020233560644555837, 0.0001618521346244961, 0.00037354251253418624, 0.00017357125761918724, 0.0001717413542792201, 0.00038081704406067729, 0.0003144129877910018, 0.00012680473446380347, 0.00012806184531655163, 7.9007892054505646e-05, 0.00059321802109479904, 0.00013145877164788544, 0.00028436380671337247, 9.0441324573475868e-05, 0.00032709602965041995, 0.00037572495057247579, 0.00010632148041622713, 0.00056914350716397166, 0.00010302379814675078, 0.00012786641309503466, 0.00013517412298824638, 0.0002304455847479403, 0.00020572707580868155, 0.00011848106078105047, 0.00014292080595623702, 0.00022066279780119658, 0.00022626572172157466, 0.00032578461105003953, 0.00047947981511242688, 7.7744829468429089e-05, 0.00012393732322379947, 0.00019579521904233843, 6.7561326432041824e-05, 0.00027296951157040894, 0.00016347417840734124, 0.00021364910935517401, 0.00025864646886475384, 8.3369566709734499e-05, 0.00011110475315945223, 0.00027568335644900799, 0.00044984981650486588, 0.00015205619274638593, 0.00013986071280669421, 0.0002262161870021373, 0.00026217504637315869, 9.1578280262183398e-05, 0.00011401266237953678, 0.00013793836114928126, 0.0003153783327434212, 0.0002052287309197709, 0.0002563268062658608, 0.0002248544042231515, 0.00023988402972463518, 5.2614261221606284e-05, 0.00020810066780541092, 9.3750757514499128e-05, 0.00033536690170876682, 0.00013753808161709458, 0.00017802778165787458, 0.0001492988521931693, 0.00034894084092229605, 0.00013017818855587393, 0.00013834716810379177, 0.0001766415371093899, 0.00019361944578122348, 9.7665651992429048e-05, 0.00028246236615814269, 0.00011890396854141727, 0.00025945043307729065, 6.7139626480638981e-05, 7.3680108471307904e-05, 0.00017628817295189947, 0.00016390554083045572, } };
const TfArray<96, int> quant27_zero = { 96, { 0,0,0,0,0,0,0,0,0,0,0,0,0,0,0,0,0,0,0,0,0,0,0,0,0,0,0,0,0,0,0,0,0,0,0,0,0,0,0,0,0,0,0,0,0,0,0,0,0,0,0,0,0,0,0,0,0,0,0,0,0,0,0,0,0,0,0,0,0,0,0,0,0,0,0,0,0,0,0,0,0,0,0,0,0,0,0,0,0,0,0,0,0,0,0,0 } };
const TfLiteAffineQuantization quant27 = { (TfLiteFloatArray*)&quant27_scale, (TfLiteIntArray*)&quant27_zero, 0 };
const ALIGN(16) int8_t tensor_data28[1*3*3*96] = { 
  /* [0][0][][] */ -18,5,-20,104,-17,23,-62,-54,17,-7,100,-10,3,-7,-4,53,5,16,-35,4,73,3,32,-33,2,17,43,50,21,12,23,48,-6,27,10,-15,5,49,-62,-26,20,9,27,17,-84,-55,25,-5,-11,-20,-8,-6,50,5,-8,2,-3,-36,28,-31,27,-1,127,27,-13,-10,10,-52,67,36,3,-8,78,-33,70,4,17,-127,30,65,1,15,127,-14,38,28,-28,-19,35,-6,-13,81,0,20,-2,12, -49,11,-8,10,52,-8,-10,-127,37,13,-127,-5,-16,-11,4,91,19,-31,-16,-15,75,-95,127,26,-61,-31,-104,-15,27,35,-49,17,121,13,-13,-1,-23,127,-65,-127,8,-18,-30,14,46,-127,127,-44,-77,51,49,7,39,-64,32,56,36,41,-100,84,127,35,4,-20,42,-37,-97,-1,37,-30,-18,45,-49,-49,107,-3,-30,-59,-32,64,-66,62,-15,9,-10,48,53,-41,-27,54,-12,72,-127,-30,23,-127, 0,-5,-23,-73,7,19,38,21,-4,-2,5,62,0,-12,-10,6,-12,17,-18,18,5,25,23,-31,1,-31,10,13,-8,6,46,-79,44,17,8,-23,12,4,-32,-21,7,3,-15,8,22,-31,21,1,6,-9,5,-5,5,5,-5,8,-8,44,8,-2,11,-18,3,-17,-26,-17,30,-50,-106,-6,42,-18,-127,-23,-12,17,11,-11,6,11,-13,23,-36,-3,-40,21,26,36,-24,-17,25,-12,20,7,-2,-46, 
  /* [0][1][][] */ -41,59,-18,38,-84,-16,-10,-44,26,95,-44,-22,-30,-24,-7,63,127,-24,-91,-13,57,-127,-28,15,-36,-48,-127,-5,37,35,-50,27,-127,-76,-57,3,66,-3,-52,46,-20,86,1,-3,34,-52,-12,-32,127,42,-4,20,45,9,-36,-18,32,9,-125,127,-37,-89,21,127,-59,-35,-84,127,-36,127,-18,52,-36,-55,37,8,-35,-70,127,47,127,35,7,-1,127,28,-96,47,-37,-35,-101,40,96,102,29,-59, 127,127,127,127,-45,-127,127,23,127,-127,16,-127,-105,127,127,127,-16,-127,-61,-127,127,23,-67,127,127,127,-55,-127,127,127,-127,127,-10,-127,-124,127,-127,-45,96,108,-127,-127,127,127,127,-119,-106,127,-14,127,-127,-127,-127,127,127,-127,127,-127,-43,41,-107,-28,-69,-67,127,127,-73,127,127,-107,-127,127,-42,127,-127,-127,-127,125,-76,127,-43,127,80,127,-37,-127,-26,-108,-127,-126,-23,-127,-22,-127,-127,118, -24,66,-38,3,127,70,-21,48,5,24,-12,-5,-26,-31,-13,-6,-104,-22,-127,39,29,78,-13,-115,-34,-41,123,74,9,35,72,9,125,-47,127,-4,55,5,-94,13,36,23,-23,0,-24,-53,-12,-43,81,14,-11,39,-5,-4,-76,-14,25,20,127,-89,1,127,0,-36,-110,-27,-74,100,15,-16,114,25,-17,-57,12,47,-28,-6,-43,-4,-46,8,47,24,-89,35,127,-48,32,-23,127,-10,-110,35,34,18, 
  /* [0][2][][] */ -5,-38,-21,-60,-4,14,40,31,-2,9,-20,51,23,-34,-7,7,41,2,12,21,-11,30,-17,-26,1,-24,10,2,-10,-6,49,-75,-38,67,-28,-25,31,-35,-65,17,9,9,-33,20,13,-78,-12,-1,-10,6,17,-7,8,1,-23,6,0,43,-49,34,-5,-12,4,17,-5,-9,21,-53,-56,11,-21,-13,-119,-33,1,18,15,-12,57,16,22,22,-40,16,11,25,-20,9,5,25,23,-6,20,40,-7,-29, -28,-10,-27,24,-44,73,-24,65,5,-6,54,-12,127,-7,-19,-18,-1,-40,-58,23,-23,78,-44,-110,-47,-48,102,69,13,43,53,-2,-123,64,-14,-23,-28,-27,-127,-4,45,-13,-15,37,-26,-46,-17,-48,-61,28,69,24,-11,-81,29,52,18,26,75,-54,20,-58,-8,1,20,-26,-127,-55,-12,-26,-63,22,36,-47,-29,-7,-44,24,-56,1,50,35,19,10,5,62,-93,127,16,127,-30,-19,112,-21,46,85, -9,-32,-25,28,13,65,-43,12,3,-6,1,13,12,-50,-10,-13,-43,-6,19,20,-25,6,-21,4,-3,19,-3,51,-2,-6,33,29,17,43,20,-23,-6,-26,-29,7,11,-11,21,10,-73,-33,-12,4,-2,-16,0,-4,-9,8,-18,-5,-1,-50,14,-29,-21,49,9,-28,-10,-2,36,-55,45,7,54,-22,30,-56,-18,22,12,11,-5,22,-30,32,89,-14,-17,54,39,-9,110,11,2,-19,11,-22,-7,-51, 
};
const TfArray<4, int> tensor_dimension28 = { 4, { 1,3,3,96 } };
const TfArray<96, float> quant28_scale = { 96, { 0.0073162657208740711, 0.0072761652991175652, 0.0078236367553472519, 0.0019354147370904684, 0.0053528905846178532, 0.0076277907937765121, 0.010925978422164917, 0.0022779484279453754, 0.0062106153927743435, 0.014332643710076809, 0.0058443928137421608, 0.011603730730712414, 0.0035651864018291235, 0.012889375910162926, 0.0059715015813708305, 0.0072145974263548851, 0.0036603556945919991, 0.011039901524782181, 0.0039630783721804619, 0.011142872273921967, 0.0021573426201939583, 0.0055344365537166595, 0.0040340535342693329, 0.014413325116038322, 0.0073626791127026081, 0.007569566834717989, 0.0048106340691447258, 0.0072055156342685223, 0.0065555330365896225, 0.0048546567559242249, 0.0042958566918969154, 0.0068302652798593044, 0.0040534692816436291, 0.005445786751806736, 0.0069969617761671543, 0.0060537960380315781, 0.01452033594250679, 0.0034479424357414246, 0.0024659698829054832, 0.0048372545279562473, 0.00678262859582901, 0.010717648081481457, 0.01341007836163044, 0.0079458197578787804, 0.0057025821879506111, 0.0028501332271844149, 0.0074913813732564449, 0.005917740985751152, 0.0030170944519340992, 0.0091784680262207985, 0.0047217416577041149, 0.0090945493429899216, 0.0073147015646100044, 0.0083816070109605789, 0.0059891287237405777, 0.012522121891379356, 0.013913686387240887, 0.0083338534459471703, 0.0042181420139968395, 0.0033488452900201082, 0.0091770365834236145, 0.0058150738477706909, 0.012263005599379539, 0.0047138100489974022, 0.0068477271124720573, 0.006224864162504673, 0.0040443642064929008, 0.0027576303109526634, 0.012147789821028709, 0.0079535720869898796, 0.0054407650604844093, 0.0056292959488928318, 0.0080779911950230598, 0.0075390529818832874, 0.0056007159873843193, 0.010154268704354763, 0.02594413235783577, 0.0017512738704681396, 0.011303930543363094, 0.013214978389441967, 0.0049505592323839664, 0.013486864045262337, 0.0068059242330491543, 0.005061393603682518, 0.0045657102018594742, 0.0048558786511421204, 0.0045733684673905373, 0.00508522754535079, 0.005631190724670887, 0.0048230504617094994, 0.007001965306699276, 0.0040098167955875397, 0.0044959806837141514, 0.014980646781623363, 1.0717446804046631, 0.0027923979796469212, } };
const TfArray<96, int> quant28_zero = { 96, { 0,0,0,0,0,0,0,0,0,0,0,0,0,0,0,0,0,0,0,0,0,0,0,0,0,0,0,0,0,0,0,0,0,0,0,0,0,0,0,0,0,0,0,0,0,0,0,0,0,0,0,0,0,0,0,0,0,0,0,0,0,0,0,0,0,0,0,0,0,0,0,0,0,0,0,0,0,0,0,0,0,0,0,0,0,0,0,0,0,0,0,0,0,0,0,0 } };
const TfLiteAffineQuantization quant28 = { (TfLiteFloatArray*)&quant28_scale, (TfLiteIntArray*)&quant28_zero, 3 };
const ALIGN(16) int32_t tensor_data29[96] = { 8360, -7759, 1753, 45673, -135, -3117, -13977, 4084, -2541, 2472, 3416, -1356, 1506, -17012, 7236, -4731, 517, 15840, 19675, 2523, 3090, -3016, -2163, -1561, 18151, -4340, 1187, -1741, -5016, -6929, 11459, -9994, 167, 82, -1483, 16712, 2823, -4324, 18337, 1999, -419, 2088, -10869, -7014, -10127, 57891, 1426, 22230, 38920, -11896, 778, 6071, 11035, -857, -9498, 3311, -12778, 2278, 3480, -7596, -137, -369, -10056, 450, 404, 17084, 27360, 27808, -13459, 279, -16541, -1443, 30875, 8373, 383, 1643, 18017, 29997, 2144, -6240, -3475, -7080, 247, -3158, -950, 555, 1315, 320, 2610, -1150, -250, -560, 1038, 1585, 48, 51461, };
const TfArray<1, int> tensor_dimension29 = { 1, { 96 } };
const TfArray<96, float> quant29_scale = { 96, { 0.00017214742547366768, 0.0001712038938421756, 0.00018408556934446096, 4.553917096927762e-05, 0.0001259503624169156, 0.00017947742890100926, 0.00025708184693939984, 5.3598789236275479e-05, 0.00014613212260883301, 0.00033723868546076119, 0.00013751513324677944, 0.00027302897069603205, 8.3886741776950657e-05, 0.00030327943386510015, 0.00014050591562408954, 0.00016975523612927645, 8.6126019596122205e-05, 0.00025976239703595638, 9.324890561401844e-05, 0.00026218523271381855, 5.0761002057697624e-05, 0.000130222033476457, 9.4918905233498663e-05, 0.00033913707011379302, 0.00017323951760772616, 0.00017810745339374989, 0.00011319138866383582, 0.00016954154125414789, 0.00015424784214701504, 0.00011422722309362143, 0.00010107898560818285, 0.00016071212303359061, 9.5375748060178012e-05, 0.0001281361619476229, 0.00016463440260849893, 0.00014244226622395217, 0.00034165495890192688, 8.1128062447533011e-05, 5.8022822486236691e-05, 0.00011381775402696803, 0.00015959126176312566, 0.00025217994698323309, 0.00031553127337247133, 0.00018696047482080758, 0.00013417840818874538, 6.7061962909065187e-05, 0.00017626780027057976, 0.00013924096128903329, 7.0990456151776016e-05, 0.00021596395527012646, 0.00011109980550827459, 0.00021398940589278936, 0.00017211062368005514, 0.00019721429271157831, 0.00014092067431192845, 0.00029463815735653043, 0.0003273808688391, 0.00019609066657721996, 9.9250399216543883e-05, 7.8796358138788491e-05, 0.00021593028213828802, 0.00013682527060154825, 0.00028854131232947111, 0.00011091317719547078, 0.00016112299636006355, 0.00014646739873569459, 9.5161514764185995e-05, 6.4885418396443129e-05, 0.00028583034873008728, 0.00018714288307819515, 0.00012801800039596856, 0.00013245402078609914, 0.00019007037917617708, 0.00017738949100021273, 0.00013178156223148108, 0.00023892396711744368, 0.00061045016627758741, 4.1206443711416796e-05, 0.00026597484247758985, 0.00031094066798686981, 0.00011648375220829621, 0.00031733798095956445, 0.00016013940330594778, 0.00011909161548828706, 0.00010742848098743707, 0.00011425597040215507, 0.00010760867007775232, 0.00011965241719735786, 0.00013249860785435885, 0.00011348354018991813, 0.00016475212760269642, 9.4348630227614194e-05, 0.00010578778164926916, 0.00035248580388724804, 0.02521752193570137, 6.5703483414836228e-05, } };
const TfArray<96, int> quant29_zero = { 96, { 0,0,0,0,0,0,0,0,0,0,0,0,0,0,0,0,0,0,0,0,0,0,0,0,0,0,0,0,0,0,0,0,0,0,0,0,0,0,0,0,0,0,0,0,0,0,0,0,0,0,0,0,0,0,0,0,0,0,0,0,0,0,0,0,0,0,0,0,0,0,0,0,0,0,0,0,0,0,0,0,0,0,0,0,0,0,0,0,0,0,0,0,0,0,0,0 } };
const TfLiteAffineQuantization quant29 = { (TfLiteFloatArray*)&quant29_scale, (TfLiteIntArray*)&quant29_zero, 0 };
const ALIGN(16) int8_t tensor_data30[16*1*1*96] = { 
  /* [0][0][][] */ -6,15,-9,15,53,76,-36,-34,50,7,18,12,-6,10,29,64,6,-10,-6,-3,106,-63,13,-13,-28,-33,-42,-102,-10,-2,43,46,124,-1,12,-7,10,-21,-21,12,-29,9,21,-32,7,-36,-10,31,-8,16,5,-5,-31,-9,12,-9,35,29,-24,-30,-56,26,-6,-10,18,14,54,-4,7,-2,-4,-33,-60,-3,-7,8,-2,-96,11,-24,39,-22,-58,-43,33,-9,10,22,-12,1,18,-35,27,24,-15,127, 
  /* [1][0][][] */ 87,-95,41,83,-12,-74,-5,-43,-29,-101,-14,21,4,-53,-42,-47,-87,2,24,19,-44,-111,-35,23,127,-66,-73,13,-21,102,-10,53,11,10,-42,31,-27,-16,60,-36,-7,-76,72,-37,-64,22,60,-11,30,29,4,-75,58,-89,34,-19,26,23,-12,-106,30,-61,16,-56,-3,-90,39,51,49,46,-41,7,-98,38,-20,61,31,105,11,-24,38,6,-85,31,-86,58,4,58,-40,18,24,10,-1,-53,38,7, 
  /* [2][0][][] */ 33,23,17,-25,12,0,-11,36,64,-17,16,65,0,14,44,1,-6,-10,7,-12,-24,-65,0,-50,3,-17,-21,20,-3,14,126,-55,14,-74,-18,61,15,127,-40,-23,2,-16,-1,40,-36,-43,-66,22,28,27,-37,-37,24,-5,2,-24,-21,6,-7,21,0,7,72,94,3,-82,23,-68,-4,-11,-10,12,-16,16,-16,20,20,56,10,22,14,88,23,-9,-9,11,5,9,19,1,-6,-47,-37,8,-4,70, 
  /* [3][0][][] */ -8,-15,-31,40,32,-25,-2,-22,-11,10,-2,1,2,-12,38,-3,43,-34,14,7,-19,-4,-10,-1,-14,7,6,-8,17,-50,55,-14,11,-14,-15,44,-9,-6,-8,4,6,-56,20,-30,-10,8,-1,-3,-127,41,-17,19,-119,-61,-23,-37,24,4,-12,52,-13,17,6,18,-22,-92,-32,23,58,21,0,29,-43,10,-3,-43,-49,-49,23,-32,17,-15,16,68,42,50,31,9,27,-5,-5,10,-26,-4,-13,-22, 
  /* [4][0][][] */ 4,-33,16,-72,-6,-19,-47,11,-26,-49,-30,-10,5,79,13,7,56,-13,11,6,-9,35,59,9,-4,-8,13,13,0,-5,-10,-5,-40,12,-3,13,31,-28,7,-9,9,6,-105,-34,27,-2,-5,-9,1,80,-9,-17,-25,-13,10,-10,-7,-34,31,34,6,4,4,-8,41,-115,29,-26,-41,18,-21,-1,-7,16,-23,35,-17,70,50,7,10,2,127,-34,42,-25,-8,-8,69,6,-3,17,-39,20,-6,-39, 
  /* [5][0][][] */ -11,4,3,-6,-1,1,-5,101,60,-14,-11,-32,-11,27,29,35,-12,-4,1,-44,-41,-14,-8,-53,8,13,26,72,66,3,66,43,-49,13,4,-6,-43,-47,-26,-18,-32,-17,-2,-3,67,14,2,12,16,-1,-20,5,-23,-17,6,-9,-24,-14,-13,27,-43,18,-18,-41,8,17,-24,3,0,18,8,-4,36,7,6,-9,-13,21,16,127,-6,-35,19,24,6,4,13,-34,-8,-23,19,-127,-25,-17,-13,-115, 
  /* [6][0][][] */ -27,-5,-11,-49,-2,-24,-12,11,1,17,-20,-4,30,-64,3,-8,-3,-60,34,13,3,0,-12,17,76,-7,3,-1,17,-5,13,-5,-23,-1,-20,1,22,-1,25,29,-7,-26,-51,-24,-8,-22,27,-127,19,32,22,10,7,0,-7,-45,33,-11,-5,10,13,15,1,8,32,62,25,-20,-26,-9,11,-21,12,4,44,-6,-34,28,0,4,-19,-2,50,-34,0,36,27,-24,22,10,-39,-9,-23,5,-8,15, 
  /* [7][0][][] */ 11,10,37,-26,-5,5,-9,-28,-1,-8,-17,-11,-10,-91,29,5,-8,-33,-9,-5,14,-20,-31,-5,-23,-8,5,-16,6,10,3,0,-16,7,-7,-22,4,-13,-29,26,9,-17,-21,31,-4,11,-11,79,2,22,-12,-22,-21,9,-6,-53,37,-3,-4,-1,-6,3,-8,-11,-18,43,11,-30,-16,-11,0,36,-5,-14,-18,6,47,3,1,-20,1,-32,38,-2,-37,127,1,-3,-37,-19,-6,16,-26,1,-7,0, 
  /* [8][0][][] */ -58,45,-56,4,51,-13,-10,28,15,65,-47,7,13,40,67,-14,0,36,-80,16,10,25,-34,2,-34,-25,27,10,51,-95,3,-3,21,4,19,-3,-21,27,-36,41,4,24,7,-127,-40,-4,39,-31,-57,18,3,64,-108,68,25,5,7,-23,-18,-18,-5,-43,4,20,-36,25,34,-14,-3,8,28,82,-28,37,42,40,-9,-86,-3,-33,-12,-12,25,5,-58,-1,9,-43,8,41,-26,7,36,-21,-20,-7, 
  /* [9][0][][] */ 22,-65,-33,-36,20,26,-17,17,25,-13,2,12,-44,-31,7,13,-3,-2,38,-19,-21,7,-33,-39,35,14,35,-7,-28,-40,-17,4,-14,12,27,40,11,47,-38,22,15,18,-19,-89,13,-17,22,-127,-30,2,-2,27,-11,9,-10,10,-37,19,-16,19,18,7,13,32,22,112,31,44,5,-2,18,-23,-17,0,-36,16,76,-7,18,9,-8,1,17,-47,6,31,-9,2,-44,33,-41,2,13,15,9,-23, 
  /* [10][0][][] */ 24,54,-18,26,71,-105,-14,-29,9,54,34,-2,-10,31,16,-72,11,42,-30,32,-80,-8,-14,-23,-66,-21,-51,48,9,3,0,30,-6,-11,27,-14,81,-15,-18,-1,-10,57,49,-16,-50,-12,-39,17,-15,-24,-46,-1,-8,-7,1,-16,7,35,-26,-23,5,11,-12,17,13,47,52,22,32,3,31,49,-45,-24,-54,-8,7,22,-12,17,24,-1,-64,-33,59,-44,88,-16,-24,6,27,-16,83,41,-14,-127, 
  /* [11][0][][] */ 41,43,-29,23,0,19,56,1,-1,-16,-21,-11,-2,1,34,-2,1,-10,-104,-7,6,12,1,-5,-44,-17,-11,4,0,15,-2,-5,-3,6,9,21,12,17,-9,17,7,32,65,-95,34,-42,-2,-4,-127,7,10,-48,27,18,-7,9,-17,-10,4,5,18,-22,-7,10,-54,55,-22,11,14,2,28,8,-53,-25,14,31,-8,-39,-47,7,14,-2,94,42,10,-5,-16,-12,0,26,-18,0,2,10,-21,9, 
  /* [12][0][][] */ -37,-1,3,2,-30,30,14,-3,127,7,-17,8,-5,-2,-34,-46,28,24,8,83,60,29,-4,-21,3,7,16,-32,-112,10,29,-42,0,-3,-5,-25,13,-4,42,-6,-48,-13,-10,12,-2,24,12,-5,18,11,-40,17,10,2,4,-9,72,-25,10,19,13,-17,13,-6,-4,30,-45,4,-4,8,-20,-39,11,13,-69,7,32,-9,10,-68,-13,3,47,43,-13,-18,-24,-27,6,22,-5,54,-22,-26,13,11, 
  /* [13][0][][] */ 27,-7,-28,31,34,0,7,-3,-5,6,10,-1,12,-7,16,-16,14,-69,-38,14,-7,-19,12,9,8,12,3,-4,-13,-35,-9,14,2,9,10,40,18,1,4,19,2,11,24,39,20,15,-8,-127,23,-6,3,9,-12,-1,15,6,-15,18,20,9,8,17,-6,2,-8,-17,-21,-55,8,17,-9,-35,-13,35,-6,23,-20,-2,19,0,27,-11,-11,15,14,28,11,22,-5,-1,22,-4,2,15,-11,-11, 
  /* [14][0][][] */ -126,-59,31,50,28,-28,-36,9,-13,15,-7,15,60,4,-127,0,79,-17,-10,37,-6,-13,42,28,-116,10,31,-8,-48,-75,-40,5,1,10,22,-71,37,36,-1,22,24,35,-4,-37,23,120,79,66,-113,45,17,38,-47,1,32,-8,2,10,61,65,42,46,17,53,6,-9,-51,44,2,76,-60,-92,-78,-5,-5,51,-12,37,97,2,54,19,32,24,46,18,52,37,22,42,71,-10,-3,34,23,-34, 
  /* [15][0][][] */ 91,-28,35,2,4,86,32,-29,-17,62,15,11,-87,-13,-5,31,8,41,49,-10,18,18,-85,79,20,15,55,0,21,53,-74,-88,17,-49,46,-7,43,-31,-65,-110,-1,29,6,45,6,50,-19,-33,118,-51,-52,34,54,-124,66,-120,-2,-58,13,21,-127,-7,26,21,92,-15,-65,41,-38,73,-32,15,54,24,24,7,33,-66,80,-22,-19,-5,49,83,-18,5,4,-53,-5,-9,68,5,-66,70,24,-19, 
};
const TfArray<4, int> tensor_dimension30 = { 4, { 16,1,1,96 } };
const TfArray<16, float> quant30_scale = { 16, { 0.019952120259404182, 0.011073385365307331, 0.011146674863994122, 0.0094903223216533661, 0.011588476598262787, 0.017065219581127167, 0.016176344826817513, 0.015200989320874214, 0.011121954768896103, 0.013292413204908371, 0.018928369507193565, 0.026916231960058212, 0.018603591248393059, 0.019898531958460808, 0.019094809889793396, 0.014334136620163918, } };
const TfArray<16, int> quant30_zero = { 16, { 0,0,0,0,0,0,0,0,0,0,0,0,0,0,0,0 } };
const TfLiteAffineQuantization quant30 = { (TfLiteFloatArray*)&quant30_scale, (TfLiteIntArray*)&quant30_zero, 0 };
const ALIGN(16) int32_t tensor_data31[16] = { -5192, -2097, -14260, 32566, 24579, 4488, -3569, -4366, 24635, 1385, 24641, 23933, -8556, 11295, 34028, -32186, };
const TfArray<1, int> tensor_dimension31 = { 1, { 16 } };
const TfArray<16, float> quant31_scale = { 16, { 0.00046946166548877954, 0.00026055023772642016, 0.00026227469788864255, 0.00022330170031636953, 0.00027267003315500915, 0.00040153457666747272, 0.00038061989471316338, 0.00035767033114098012, 0.00026169305783696473, 0.00031276268418878317, 0.00044537341454997659, 0.00063332309946417809, 0.00043773156357929111, 0.00046820077113807201, 0.00044928965508006513, 0.00033727381378412247, } };
const TfArray<16, int> quant31_zero = { 16, { 0,0,0,0,0,0,0,0,0,0,0,0,0,0,0,0 } };
const TfLiteAffineQuantization quant31 = { (TfLiteFloatArray*)&quant31_scale, (TfLiteIntArray*)&quant31_zero, 0 };
const ALIGN(16) int8_t tensor_data32[96*1*1*16] = { 
  /* [0][0][][] */ 8,70,-16,69,32,36,4,-6,29,26,-52,106,-3,-115,38,-127, 
  /* [1][0][][] */ 19,54,-15,-35,30,-32,127,-114,-3,80,-7,-24,6,-59,36,9, 
  /* [2][0][][] */ -127,25,-28,-13,9,-1,69,99,-27,66,94,-10,-56,25,23,-61, 
  /* [3][0][][] */ -50,53,43,47,-55,42,74,127,-2,51,-99,-6,43,-77,-92,-48, 
  /* [4][0][][] */ 18,-6,34,61,-19,68,3,43,1,-14,-1,-4,28,-7,-127,-26, 
  /* [5][0][][] */ -6,-29,48,-28,3,-27,-1,20,-62,104,-24,-127,-18,21,-45,-15, 
  /* [6][0][][] */ 14,0,32,-13,40,60,-70,-76,-10,-4,49,-14,127,-25,-10,-29, 
  /* [7][0][][] */ 12,10,127,-7,-18,-31,5,-17,-74,27,-84,-38,5,-5,32,-18, 
  /* [8][0][][] */ 21,33,77,64,-50,101,24,40,32,-10,11,-115,-48,-6,-127,-95, 
  /* [9][0][][] */ 36,-112,62,39,18,-27,2,20,127,-4,70,13,-30,3,-112,-34, 
  /* [10][0][][] */ -36,-105,5,-19,-105,3,-16,63,96,127,50,-26,-14,60,84,-3, 
  /* [11][0][][] */ 33,-16,0,-98,11,-34,-101,-127,-53,33,-4,-32,31,-31,48,-59, 
  /* [12][0][][] */ -8,15,6,-54,-44,-46,-95,-29,-59,-90,-16,6,17,127,103,58, 
  /* [13][0][][] */ -26,-125,-66,38,-15,-76,-2,-14,62,22,-19,-19,29,23,127,25, 
  /* [14][0][][] */ 11,-57,52,21,21,23,18,127,10,42,6,-43,20,37,-55,116, 
  /* [15][0][][] */ 22,-37,3,62,17,-4,95,-2,5,-127,12,-37,1,-23,-8,-39, 
  /* [16][0][][] */ 38,-76,-40,37,14,11,34,-61,127,62,84,11,13,106,60,107, 
  /* [17][0][][] */ -101,-97,45,114,114,46,25,-30,123,-58,11,-45,28,50,-127,54, 
  /* [18][0][][] */ -11,8,-1,17,-99,-6,-13,32,-56,-13,-19,-50,10,-127,62,-12, 
  /* [19][0][][] */ 58,-78,57,-75,104,41,-127,108,95,-97,70,46,-22,58,38,126, 
  /* [20][0][][] */ 34,-24,58,-67,-14,5,-27,42,-20,-47,94,-18,17,8,-31,127, 
  /* [21][0][][] */ -65,-17,2,-27,12,8,-71,-44,-16,64,-2,15,-127,-7,36,-11, 
  /* [22][0][][] */ 25,-22,19,-35,10,-70,12,-20,-127,28,-11,-38,-18,-19,86,-18, 
  /* [23][0][][] */ 9,6,20,-4,5,11,-14,7,-2,-2,48,-10,127,-4,1,-39, 
  /* [24][0][][] */ -6,-6,9,-60,-24,-24,47,14,-54,-8,-15,-127,0,-87,32,6, 
  /* [25][0][][] */ -116,17,-31,13,53,-43,-57,-127,-26,51,-44,-52,-61,-65,7,-32, 
  /* [26][0][][] */ 35,-11,59,-93,127,-24,8,8,125,-36,28,-27,-6,113,-7,64, 
  /* [27][0][][] */ 103,-32,18,-35,-37,-60,3,-22,-30,23,-127,12,21,-16,5,42, 
  /* [28][0][][] */ -113,-22,-127,-83,42,-16,74,-50,-11,53,-55,9,45,-13,-32,49, 
  /* [29][0][][] */ -70,-38,-6,127,-10,7,13,-37,0,11,-78,49,24,-71,32,-43, 
  /* [30][0][][] */ 59,-7,127,-8,63,49,-18,78,-24,-63,47,-24,-9,34,-69,54, 
  /* [31][0][][] */ 14,-84,1,-45,-1,-57,19,-47,-12,47,112,22,-27,90,70,127, 
  /* [32][0][][] */ -11,69,-35,36,-127,20,-66,-39,-58,-29,4,47,14,52,35,63, 
  /* [33][0][][] */ 24,-17,19,127,10,-4,25,-53,-105,62,77,-27,5,-5,17,118, 
  /* [34][0][][] */ 47,7,14,6,85,-51,-127,-32,-52,94,-36,5,-42,15,17,1, 
  /* [35][0][][] */ 65,11,-20,-8,12,-127,-15,-12,-31,5,-70,-11,81,12,3,24, 
  /* [36][0][][] */ 25,-8,-127,2,38,7,-25,18,-35,-17,4,-17,7,8,-11,5, 
  /* [37][0][][] */ 6,5,127,-1,-50,27,21,-51,-5,31,-41,23,15,-3,10,-7, 
  /* [38][0][][] */ -123,32,-7,18,20,68,17,-26,7,-18,127,-33,-31,5,-8,-14, 
  /* [39][0][][] */ -20,-7,10,30,30,-14,-127,33,14,33,-1,-37,2,-24,2,-3, 
  /* [40][0][][] */ -8,89,-25,127,19,55,72,46,-68,-38,-27,69,29,55,-59,-31, 
  /* [41][0][][] */ 23,21,-42,-24,-57,-1,127,101,-53,89,-35,7,3,68,37,-6, 
  /* [42][0][][] */ 41,-55,-23,-19,33,36,-69,58,74,-101,127,36,-18,35,-57,34, 
  /* [43][0][][] */ -71,10,32,-37,38,22,-78,-85,-29,37,-4,-8,-127,-12,33,-8, 
  /* [44][0][][] */ 12,7,-16,-11,0,-23,1,-54,127,-7,16,46,22,82,5,44, 
  /* [45][0][][] */ -62,-97,17,-90,29,1,-14,59,10,-67,-22,-34,22,111,-40,127, 
  /* [46][0][][] */ -38,18,-21,86,-74,-22,-1,-66,-127,34,-52,-17,-4,31,-3,-33, 
  /* [47][0][][] */ -20,-12,-87,127,10,48,2,-14,18,47,45,62,-8,-7,16,-26, 
  /* [48][0][][] */ -4,14,19,-127,23,-31,-26,-16,-45,8,32,-22,-26,50,92,48, 
  /* [49][0][][] */ -15,29,53,106,-2,51,-56,-6,31,-56,-97,-33,-21,-38,-92,-127, 
  /* [50][0][][] */ 3,68,31,-100,63,21,-19,60,127,-12,-38,13,-3,-32,5,-24, 
  /* [51][0][][] */ 16,-29,27,0,53,-11,-58,-127,20,-69,-11,4,-13,-7,-18,-18, 
  /* [52][0][][] */ 17,20,-14,33,30,-17,-66,104,-80,127,-40,-40,82,94,13,-35, 
  /* [53][0][][] */ 4,100,5,-97,-42,-1,40,-16,-79,-47,-49,59,21,-127,-98,-14, 
  /* [54][0][][] */ -1,5,20,36,46,-29,8,-32,-8,31,-9,-22,-10,127,-43,-12, 
  /* [55][0][][] */ -127,126,95,-13,52,10,-23,3,-41,34,97,-7,-19,-21,108,-19, 
  /* [56][0][][] */ 51,-6,13,-127,82,-9,-5,37,51,-56,58,117,-17,8,96,64, 
  /* [57][0][][] */ -15,5,14,76,-19,17,53,127,1,7,16,-23,0,65,18,11, 
  /* [58][0][][] */ 23,122,-6,-127,4,30,-7,15,100,-6,-7,74,10,-92,45,67, 
  /* [59][0][][] */ 17,40,39,-105,-42,-9,36,-15,13,31,35,-74,-3,-127,-62,14, 
  /* [60][0][][] */ 54,-14,120,-53,-51,127,43,-46,-4,50,-44,-10,30,20,43,1, 
  /* [61][0][][] */ -22,24,-40,-36,-53,12,93,127,-17,75,-9,14,2,80,11,-32, 
  /* [62][0][][] */ -10,7,-7,-4,-78,32,-61,21,-31,-34,-10,-46,23,-127,100,2, 
  /* [63][0][][] */ 17,-25,-6,-87,34,-8,-111,-127,-52,88,-9,6,57,6,31,-43, 
  /* [64][0][][] */ -19,-9,29,39,66,-6,-41,-127,22,-111,0,-46,-7,-27,-9,12, 
  /* [65][0][][] */ -127,21,31,-64,17,79,39,-54,-79,27,44,-8,-4,11,-20,-28, 
  /* [66][0][][] */ 66,19,79,8,-58,10,-24,30,-55,-15,72,-93,-21,40,-127,-13, 
  /* [67][0][][] */ 37,-31,-53,78,57,-59,-77,-107,57,-127,-85,-39,-112,29,-102,18, 
  /* [68][0][][] */ 16,-31,-89,35,-58,-84,-5,-60,-57,-28,47,-78,-26,34,127,-12, 
  /* [69][0][][] */ -32,31,-70,59,-15,-127,31,84,31,13,55,-3,116,39,-6,3, 
  /* [70][0][][] */ 3,8,-34,-37,-45,12,127,108,-15,60,-24,20,11,50,10,-4, 
  /* [71][0][][] */ 12,-14,-21,-43,27,6,5,58,-26,-40,-17,4,12,-127,63,4, 
  /* [72][0][][] */ 26,24,-19,23,21,-45,-52,-127,9,49,-41,9,49,47,45,56, 
  /* [73][0][][] */ -49,-127,-31,-63,-91,-12,40,-36,-17,15,-28,-33,13,-51,70,-11, 
  /* [74][0][][] */ -30,30,52,91,-2,4,-127,94,26,-38,-40,-44,-4,-9,-8,-6, 
  /* [75][0][][] */ -58,29,-39,17,-30,92,84,126,0,67,-1,-35,-127,78,15,26, 
  /* [76][0][][] */ 6,-12,-34,-13,44,-60,-127,-124,-14,-14,11,-6,33,1,77,-38, 
  /* [77][0][][] */ -40,2,-40,-24,-52,-10,-10,-50,127,14,-59,4,-1,41,33,-81, 
  /* [78][0][][] */ -98,-127,-2,106,78,79,-39,32,-11,-82,-110,89,44,-35,96,69, 
  /* [79][0][][] */ 31,-9,30,-58,127,9,51,20,90,25,8,36,-2,-26,23,-47, 
  /* [80][0][][] */ 6,-49,60,-119,-24,-51,3,8,-97,-54,-12,-65,3,127,-33,14, 
  /* [81][0][][] */ 23,-15,33,37,2,38,-16,-17,6,-6,-9,-43,0,27,-127,17, 
  /* [82][0][][] */ -82,-21,29,-127,-5,-51,-1,-49,-23,-35,-52,-117,-19,-105,-99,23, 
  /* [83][0][][] */ -2,11,-30,-66,-38,-1,1,46,-67,-3,9,-66,24,-127,0,43, 
  /* [84][0][][] */ 127,41,31,63,-50,14,-71,25,-6,-32,103,13,-89,19,77,-83, 
  /* [85][0][][] */ -12,-18,20,-27,46,-3,-46,117,-79,-111,-62,-35,-25,77,76,-127, 
  /* [86][0][][] */ 25,-7,9,3,-62,69,-45,54,-84,-40,30,-19,-14,-127,-17,24, 
  /* [87][0][][] */ 127,-36,27,7,-32,-25,-8,3,13,11,-109,20,29,-1,-9,32, 
  /* [88][0][][] */ 15,46,-36,-7,-40,-49,-4,1,76,17,19,21,12,-31,127,-89, 
  /* [89][0][][] */ 42,71,-91,-25,-37,-28,22,-74,42,44,33,-38,-45,-8,-15,-127, 
  /* [90][0][][] */ 1,-34,-5,-84,-74,7,127,-60,78,-76,21,-76,45,-26,-36,-17, 
  /* [91][0][][] */ 16,12,-15,-103,-35,5,21,-34,-55,15,65,54,5,-20,29,127, 
  /* [92][0][][] */ 18,0,10,17,53,-12,-68,-127,42,-63,-8,-29,-33,-15,-11,-21, 
  /* [93][0][][] */ 62,11,45,-126,-35,3,-36,57,53,-78,86,-16,-47,127,-31,21, 
  /* [94][0][][] */ -90,34,-98,2,55,-127,-11,12,-12,-36,99,-33,5,-12,-22,5, 
  /* [95][0][][] */ -19,60,26,-127,-5,7,-38,4,23,-23,-53,-75,2,32,-70,-8, 
};
const TfArray<4, int> tensor_dimension32 = { 4, { 96,1,1,16 } };
const TfArray<96, float> quant32_scale = { 96, { 0.00065118575002998114, 0.00084615207742899656, 0.00050293718231841922, 0.00024532029055990279, 0.00050950306467711926, 0.00085879041580483317, 0.0013348289066925645, 0.0012684229295700788, 0.00018092822574544698, 0.00086433382239192724, 0.0005845070700161159, 0.00052683555986732244, 0.00042289844714105129, 0.00042925300658680499, 0.00022653763880953193, 0.0010975743643939495, 0.00054551556240767241, 0.00038503046380355954, 0.00039062168798409402, 0.00095592148136347532, 0.00096974987536668777, 0.0021590425167232752, 0.00037614913890138268, 0.0022500187624245882, 0.001405700109899044, 0.00080405024345964193, 0.00058129982789978385, 0.00064614845905452967, 0.00079576537245884538, 0.00028387093334458768, 0.00021118904987815768, 0.00033034631633199751, 0.00051639758748933673, 0.00070715619949623942, 0.00079752079909667373, 0.00078755401773378253, 0.00085440510883927345, 0.0012525839265435934, 0.00045049123582430184, 0.0021031787618994713, 0.00031625005067326128, 0.00042774432222358882, 0.0003783655702136457, 0.00087507523130625486, 0.0003229161084163934, 0.00067391927586868405, 0.00095733709167689085, 0.00072266394272446632, 0.0001846212544478476, 0.00040646857814863324, 0.00051521172281354666, 0.00062179524684324861, 0.00098403729498386383, 0.000923012790735811, 0.00096255907556042075, 0.00057698402088135481, 0.00058158923638984561, 0.00038311592652462423, 0.00094251090195029974, 0.0005362705560401082, 0.001191690331324935, 0.00023362717183772475, 0.00040948388050310314, 0.00056566216517239809, 0.00059687922475859523, 0.00079246313543990254, 0.00086413003737106919, 0.00061263598036020994, 0.0004504361713770777, 0.00066005118424072862, 0.00049846956972032785, 0.00037813003291375935, 0.00032097319490276277, 0.00038351237890310585, 0.0010857945308089256, 0.00089851516531780362, 0.00064738182118162513, 0.00088992837117984891, 0.0010550719453021884, 0.00079488597111776471, 0.00046579449553973973, 0.00039966418989934027, 0.0005433466867543757, 0.00028027434018440545, 0.0010768029605969787, 0.0008989109774120152, 0.00050404900684952736, 0.00018043826275970787, 0.00053291145013645291, 0.00098986388184130192, 0.00063169311033561826, 0.00084990839241072536, 0.00062155572231858969, 0.00067741156090050936, 0.00074322137515991926, 0.00051218632142990828, } };
const TfArray<96, int> quant32_zero = { 96, { 0,0,0,0,0,0,0,0,0,0,0,0,0,0,0,0,0,0,0,0,0,0,0,0,0,0,0,0,0,0,0,0,0,0,0,0,0,0,0,0,0,0,0,0,0,0,0,0,0,0,0,0,0,0,0,0,0,0,0,0,0,0,0,0,0,0,0,0,0,0,0,0,0,0,0,0,0,0,0,0,0,0,0,0,0,0,0,0,0,0,0,0,0,0,0,0 } };
const TfLiteAffineQuantization quant32 = { (TfLiteFloatArray*)&quant32_scale, (TfLiteIntArray*)&quant32_zero, 0 };
const ALIGN(16) int32_t tensor_data33[96] = { 2371, 6448, 14180, 35599, 21999, -4430, -2224, 4835, 49034, -5968, 17093, 6253, 11307, 20402, 39785, 1941, 3124, 11985, 21410, 4692, -316, 418, 20157, -1067, 6985, -14, 14328, 8065, 7644, 46421, 50247, 28100, 12186, -1205, 9385, 2736, 2217, 4455, 22522, -1024, 22520, 13870, 26887, -4537, 37849, 8656, 6795, 13883, 84342, 19531, -1023, 10412, -4068, -260, -3978, 7166, -705, 18191, 8174, 10422, 5027, 22584, 13437, 6663, 15494, 9173, 5608, -8080, 13919, -3983, 8473, 15976, 24453, 10003, -5354, -5628, 9684, 398, 2741, -1929, 16491, 15445, 6116, 26165, 4033, 286, 17525, 80516, 10056, 8605, 7473, -397, 8928, 8879, 5632, 12493, };
const TfArray<1, int> tensor_dimension33 = { 1, { 96 } };
const TfArray<96, float> quant33_scale = { 96, { 0.00017343701620120555, 0.00022536440519616008, 0.0001339524460490793, 6.5338681451976299e-05, 0.00013570120790973306, 0.00022873051057104021, 0.00035551874316297472, 0.0003378321707714349, 4.8188481741817668e-05, 0.00023020694789011031, 0.00015567780064884573, 0.00014031755563337356, 0.00011263490887358785, 0.00011432738392613828, 6.0336107708280906e-05, 0.0002923283027485013, 0.00014529278269037604, 0.00010254913649987429, 0.00010403830674476922, 0.00025460042525082827, 0.00025828348589129746, 0.00057504005962982774, 0.00010018367902375758, 0.00059927068650722504, 0.00037439461448229849, 0.00021415099035948515, 0.00015482357412111014, 0.00017209538782481104, 0.00021194439614191651, 7.5606272730510682e-05, 5.624815821647644e-05, 8.798453927738592e-05, 0.00013753749954048544, 0.00018834420188795775, 0.00021241193462628871, 0.00020975738880224526, 0.0002275625301990658, 0.00033361359965056181, 0.00011998397530987859, 0.00056016130838543177, 8.4230137872509658e-05, 0.00011392555461497977, 0.00010077400656882674, 0.00023306781076826155, 8.6005580669734627e-05, 0.00017949187895283103, 0.00025497746537439525, 0.00019247454474680126, 4.9172082071891055e-05, 0.00010825896606547758, 0.00013722165022045374, 0.00016560914809815586, 0.00026208881172351539, 0.00024583551567047834, 0.00025636827922426164, 0.00015367410378530622, 0.0001549006556160748, 0.00010203921556239948, 0.00025102865765802562, 0.00014283046766649932, 0.00031739516998641193, 6.2224331486504525e-05, 0.0001090620644390583, 0.00015065864135976881, 0.00015897299454081804, 0.00021106487838551402, 0.00023015266924630851, 0.00016316966502927244, 0.00011996931425528601, 0.00017579823906999081, 0.00013276253594085574, 0.00010071127326227725, 8.5488100012298673e-05, 0.00010214481153525412, 0.00028919085161760449, 0.00023931081523187459, 0.00017242388275917619, 0.00023702380713075399, 0.00028100819326937199, 0.00021171018306631595, 0.00012405985035002232, 0.000106446685094852, 0.00014471512986347079, 7.4648356530815363e-05, 0.00028679604292847216, 0.00023941622930578887, 0.00013424857752397656, 4.8057983804028481e-05, 0.00014193580136634409, 0.00026364065706729889, 0.00016824534395709634, 0.00022636486392002553, 0.0001655453525017947, 0.00018042200827039778, 0.00019794981926679611, 0.00013641586701851338, } };
const TfArray<96, int> quant33_zero = { 96, { 0,0,0,0,0,0,0,0,0,0,0,0,0,0,0,0,0,0,0,0,0,0,0,0,0,0,0,0,0,0,0,0,0,0,0,0,0,0,0,0,0,0,0,0,0,0,0,0,0,0,0,0,0,0,0,0,0,0,0,0,0,0,0,0,0,0,0,0,0,0,0,0,0,0,0,0,0,0,0,0,0,0,0,0,0,0,0,0,0,0,0,0,0,0,0,0 } };
const TfLiteAffineQuantization quant33 = { (TfLiteFloatArray*)&quant33_scale, (TfLiteIntArray*)&quant33_zero, 0 };
const ALIGN(16) int8_t tensor_data34[1*3*3*96] = { 
  /* [0][0][][] */ -46,-71,-11,127,22,70,75,-58,-15,-17,-14,-5,-29,-1,37,1,-9,-45,26,21,18,-127,127,6,-84,6,49,-28,-126,-127,39,24,12,26,61,-17,-30,-10,30,-7,-13,27,-109,70,25,-69,38,46,-18,51,-24,19,2,-6,15,47,-90,-49,-58,-20,-10,0,11,38,69,-25,74,14,-7,17,19,127,23,23,25,-1,-10,18,127,-7,-14,16,-28,21,127,19,-77,-16,-2,-32,-16,-38,1,-25,-15,25, 127,-127,74,106,-42,127,38,-117,70,4,-16,127,127,-100,-13,14,10,127,127,-112,127,-77,81,68,-127,-117,-67,-34,-54,46,-60,-21,-89,53,-127,-84,-43,-14,-53,61,-1,127,127,81,-52,-113,-112,-49,-15,-127,44,85,67,-32,45,83,-47,42,-79,-114,-45,-41,-61,66,74,-61,27,31,-79,33,-17,89,116,127,13,19,2,58,-34,52,65,127,127,-23,-8,73,-113,127,-119,-99,4,-127,-91,-127,-38,105, -75,-13,29,-83,15,-25,64,-9,81,-34,-27,19,-19,-6,-9,-12,-8,-16,6,-4,-23,-103,29,-1,-123,95,9,-54,115,49,-14,9,1,13,15,-29,-9,34,19,11,24,12,-119,64,18,-19,38,14,-14,10,-16,4,-9,2,-3,20,-64,7,-31,51,3,41,33,-1,-7,-39,-32,24,10,3,-3,35,9,-25,-5,4,-12,-6,-85,2,-20,-22,-17,3,-109,8,-34,-22,-50,24,-25,-32,29,-27,-14,1, 
  /* [0][1][][] */ -64,-74,73,-35,-48,94,19,127,-52,-21,0,-118,26,-117,79,30,-3,-61,-17,89,53,-67,48,50,-97,-12,127,-22,-25,65,121,-103,-127,90,-87,-55,-36,31,-29,96,-49,-26,-5,46,-47,127,-23,64,15,94,19,-2,15,-55,26,31,127,121,-69,-86,127,-33,-35,127,73,-38,-15,-2,127,39,127,96,-41,102,-5,11,13,13,-32,9,-43,123,-81,110,2,34,-55,30,77,-127,-32,-6,127,-70,-23,0, 67,126,56,-113,127,85,92,37,-127,127,127,-38,-64,-127,-127,127,127,-63,-124,-51,104,95,-121,127,-106,-89,-44,127,-127,109,-127,-127,-88,127,108,127,127,-127,-106,127,-65,-96,110,-127,-127,-36,-127,-127,127,-111,86,43,127,127,127,-127,99,-127,-127,127,19,-80,-127,-99,-127,127,-127,127,-124,-127,-107,-83,-127,-79,127,127,-127,127,-79,127,127,30,-42,-127,61,127,92,45,127,13,127,3,-68,34,127,-127, -53,-13,-50,37,-56,-97,37,-28,19,-33,-28,93,2,94,14,10,-4,65,-7,127,4,-83,-41,8,-75,103,-70,-20,-69,-17,17,-63,-70,37,6,-18,-30,45,-68,41,127,-5,-38,28,-39,-60,17,45,9,116,-11,6,-37,-73,3,19,96,3,2,21,-34,127,91,-52,-43,12,37,-11,-75,122,-19,-86,-1,-54,-16,-20,27,16,77,-36,-69,-40,56,14,-48,-16,74,23,16,62,-43,21,-44,96,-26,-5, 
  /* [0][2][][] */ -66,1,-4,-21,13,-45,65,23,55,-28,-36,-1,19,17,-26,1,-7,65,7,0,-53,-82,2,-9,-29,-54,34,-69,87,39,25,27,16,-9,-12,-45,-6,36,-4,-2,-15,-7,-69,106,4,32,11,36,-16,-31,11,-20,22,0,8,16,-69,24,-14,13,15,0,-22,-5,0,-47,-47,15,-32,14,25,30,13,-19,27,3,16,5,-79,-12,-9,-8,17,15,-127,7,12,-44,-55,-51,-27,-50,9,57,-19,-8, 122,34,-127,-36,-72,-24,39,29,-65,-29,-19,-108,-76,112,-13,36,2,-50,-9,-127,91,-52,-38,0,-111,127,-52,20,-36,-21,-10,-4,-63,14,28,6,-23,-28,127,51,12,-15,68,-34,-39,77,-67,-43,-34,-6,-127,-127,-52,-26,1,40,-66,-6,12,39,-8,-19,8,-47,-54,32,65,-23,114,109,-24,-70,11,-57,3,3,98,4,51,22,12,-95,-51,3,2,8,127,39,-57,39,-18,-111,41,81,-10,26, -53,13,-18,25,15,-67,-127,1,-11,-8,-15,4,15,-26,19,-1,-7,-16,4,16,-48,-73,14,2,15,-95,21,3,-48,-39,-6,17,42,-21,-6,-26,-36,4,41,-42,23,-3,-48,-34,4,65,23,16,-10,-5,10,-9,17,6,-4,-5,-60,-12,4,-38,-11,10,84,-10,34,-3,-1,28,1,6,-5,19,-18,16,-1,15,36,1,74,-11,3,-7,-8,-18,74,1,42,-39,60,38,-16,-56,-8,2,-14,-15, 
};
const TfArray<4, int> tensor_dimension34 = { 4, { 1,3,3,96 } };
